//      [v][u][x+y*8]
const f32 IDCT_Weights[8][8][64] = {
    {
        // (v, u)=(0,0)
        {
             1.000000000000000,     1.000000000000000,     1.000000000000000,     1.000000000000000,     1.000000000000000,     1.000000000000000,     1.000000000000000,     1.000000000000000,
             1.000000000000000,     1.000000000000000,     1.000000000000000,     1.000000000000000,     1.000000000000000,     1.000000000000000,     1.000000000000000,     1.000000000000000,
             1.000000000000000,     1.000000000000000,     1.000000000000000,     1.000000000000000,     1.000000000000000,     1.000000000000000,     1.000000000000000,     1.000000000000000,
             1.000000000000000,     1.000000000000000,     1.000000000000000,     1.000000000000000,     1.000000000000000,     1.000000000000000,     1.000000000000000,     1.000000000000000,
             1.000000000000000,     1.000000000000000,     1.000000000000000,     1.000000000000000,     1.000000000000000,     1.000000000000000,     1.000000000000000,     1.000000000000000,
             1.000000000000000,     1.000000000000000,     1.000000000000000,     1.000000000000000,     1.000000000000000,     1.000000000000000,     1.000000000000000,     1.000000000000000,
             1.000000000000000,     1.000000000000000,     1.000000000000000,     1.000000000000000,     1.000000000000000,     1.000000000000000,     1.000000000000000,     1.000000000000000,
             1.000000000000000,     1.000000000000000,     1.000000000000000,     1.000000000000000,     1.000000000000000,     1.000000000000000,     1.000000000000000,     1.000000000000000,
    },
        // (v, u)=(0,1)
        {
             0.980785280403230,     0.831469612302545,     0.555570233019602,     0.195090322016128,    -0.195090322016128,    -0.555570233019602,    -0.831469612302545,    -0.980785280403230,
             0.980785280403230,     0.831469612302545,     0.555570233019602,     0.195090322016128,    -0.195090322016128,    -0.555570233019602,    -0.831469612302545,    -0.980785280403230,
             0.980785280403230,     0.831469612302545,     0.555570233019602,     0.195090322016128,    -0.195090322016128,    -0.555570233019602,    -0.831469612302545,    -0.980785280403230,
             0.980785280403230,     0.831469612302545,     0.555570233019602,     0.195090322016128,    -0.195090322016128,    -0.555570233019602,    -0.831469612302545,    -0.980785280403230,
             0.980785280403230,     0.831469612302545,     0.555570233019602,     0.195090322016128,    -0.195090322016128,    -0.555570233019602,    -0.831469612302545,    -0.980785280403230,
             0.980785280403230,     0.831469612302545,     0.555570233019602,     0.195090322016128,    -0.195090322016128,    -0.555570233019602,    -0.831469612302545,    -0.980785280403230,
             0.980785280403230,     0.831469612302545,     0.555570233019602,     0.195090322016128,    -0.195090322016128,    -0.555570233019602,    -0.831469612302545,    -0.980785280403230,
             0.980785280403230,     0.831469612302545,     0.555570233019602,     0.195090322016128,    -0.195090322016128,    -0.555570233019602,    -0.831469612302545,    -0.980785280403230,
    },
        // (v, u)=(0,2)
        {
             0.923879532511287,     0.382683432365090,    -0.382683432365090,    -0.923879532511287,    -0.923879532511287,    -0.382683432365090,     0.382683432365090,     0.923879532511287,
             0.923879532511287,     0.382683432365090,    -0.382683432365090,    -0.923879532511287,    -0.923879532511287,    -0.382683432365090,     0.382683432365090,     0.923879532511287,
             0.923879532511287,     0.382683432365090,    -0.382683432365090,    -0.923879532511287,    -0.923879532511287,    -0.382683432365090,     0.382683432365090,     0.923879532511287,
             0.923879532511287,     0.382683432365090,    -0.382683432365090,    -0.923879532511287,    -0.923879532511287,    -0.382683432365090,     0.382683432365090,     0.923879532511287,
             0.923879532511287,     0.382683432365090,    -0.382683432365090,    -0.923879532511287,    -0.923879532511287,    -0.382683432365090,     0.382683432365090,     0.923879532511287,
             0.923879532511287,     0.382683432365090,    -0.382683432365090,    -0.923879532511287,    -0.923879532511287,    -0.382683432365090,     0.382683432365090,     0.923879532511287,
             0.923879532511287,     0.382683432365090,    -0.382683432365090,    -0.923879532511287,    -0.923879532511287,    -0.382683432365090,     0.382683432365090,     0.923879532511287,
             0.923879532511287,     0.382683432365090,    -0.382683432365090,    -0.923879532511287,    -0.923879532511287,    -0.382683432365090,     0.382683432365090,     0.923879532511287,
    },
        // (v, u)=(0,3)
        {
             0.831469612302545,    -0.195090322016128,    -0.980785280403230,    -0.555570233019602,     0.555570233019602,     0.980785280403230,     0.195090322016129,    -0.831469612302545,
             0.831469612302545,    -0.195090322016128,    -0.980785280403230,    -0.555570233019602,     0.555570233019602,     0.980785280403230,     0.195090322016129,    -0.831469612302545,
             0.831469612302545,    -0.195090322016128,    -0.980785280403230,    -0.555570233019602,     0.555570233019602,     0.980785280403230,     0.195090322016129,    -0.831469612302545,
             0.831469612302545,    -0.195090322016128,    -0.980785280403230,    -0.555570233019602,     0.555570233019602,     0.980785280403230,     0.195090322016129,    -0.831469612302545,
             0.831469612302545,    -0.195090322016128,    -0.980785280403230,    -0.555570233019602,     0.555570233019602,     0.980785280403230,     0.195090322016129,    -0.831469612302545,
             0.831469612302545,    -0.195090322016128,    -0.980785280403230,    -0.555570233019602,     0.555570233019602,     0.980785280403230,     0.195090322016129,    -0.831469612302545,
             0.831469612302545,    -0.195090322016128,    -0.980785280403230,    -0.555570233019602,     0.555570233019602,     0.980785280403230,     0.195090322016129,    -0.831469612302545,
             0.831469612302545,    -0.195090322016128,    -0.980785280403230,    -0.555570233019602,     0.555570233019602,     0.980785280403230,     0.195090322016129,    -0.831469612302545,
    },
        // (v, u)=(0,4)
        {
             0.707106781186548,    -0.707106781186547,    -0.707106781186548,     0.707106781186547,     0.707106781186548,    -0.707106781186547,    -0.707106781186547,     0.707106781186547,
             0.707106781186548,    -0.707106781186547,    -0.707106781186548,     0.707106781186547,     0.707106781186548,    -0.707106781186547,    -0.707106781186547,     0.707106781186547,
             0.707106781186548,    -0.707106781186547,    -0.707106781186548,     0.707106781186547,     0.707106781186548,    -0.707106781186547,    -0.707106781186547,     0.707106781186547,
             0.707106781186548,    -0.707106781186547,    -0.707106781186548,     0.707106781186547,     0.707106781186548,    -0.707106781186547,    -0.707106781186547,     0.707106781186547,
             0.707106781186548,    -0.707106781186547,    -0.707106781186548,     0.707106781186547,     0.707106781186548,    -0.707106781186547,    -0.707106781186547,     0.707106781186547,
             0.707106781186548,    -0.707106781186547,    -0.707106781186548,     0.707106781186547,     0.707106781186548,    -0.707106781186547,    -0.707106781186547,     0.707106781186547,
             0.707106781186548,    -0.707106781186547,    -0.707106781186548,     0.707106781186547,     0.707106781186548,    -0.707106781186547,    -0.707106781186547,     0.707106781186547,
             0.707106781186548,    -0.707106781186547,    -0.707106781186548,     0.707106781186547,     0.707106781186548,    -0.707106781186547,    -0.707106781186547,     0.707106781186547,
    },
        // (v, u)=(0,5)
        {
             0.555570233019602,    -0.980785280403230,     0.195090322016128,     0.831469612302545,    -0.831469612302545,    -0.195090322016128,     0.980785280403231,    -0.555570233019602,
             0.555570233019602,    -0.980785280403230,     0.195090322016128,     0.831469612302545,    -0.831469612302545,    -0.195090322016128,     0.980785280403231,    -0.555570233019602,
             0.555570233019602,    -0.980785280403230,     0.195090322016128,     0.831469612302545,    -0.831469612302545,    -0.195090322016128,     0.980785280403231,    -0.555570233019602,
             0.555570233019602,    -0.980785280403230,     0.195090322016128,     0.831469612302545,    -0.831469612302545,    -0.195090322016128,     0.980785280403231,    -0.555570233019602,
             0.555570233019602,    -0.980785280403230,     0.195090322016128,     0.831469612302545,    -0.831469612302545,    -0.195090322016128,     0.980785280403231,    -0.555570233019602,
             0.555570233019602,    -0.980785280403230,     0.195090322016128,     0.831469612302545,    -0.831469612302545,    -0.195090322016128,     0.980785280403231,    -0.555570233019602,
             0.555570233019602,    -0.980785280403230,     0.195090322016128,     0.831469612302545,    -0.831469612302545,    -0.195090322016128,     0.980785280403231,    -0.555570233019602,
             0.555570233019602,    -0.980785280403230,     0.195090322016128,     0.831469612302545,    -0.831469612302545,    -0.195090322016128,     0.980785280403231,    -0.555570233019602,
    },
        // (v, u)=(0,6)
        {
             0.382683432365090,    -0.923879532511287,     0.923879532511287,    -0.382683432365090,    -0.382683432365091,     0.923879532511287,    -0.923879532511286,     0.382683432365090,
             0.382683432365090,    -0.923879532511287,     0.923879532511287,    -0.382683432365090,    -0.382683432365091,     0.923879532511287,    -0.923879532511286,     0.382683432365090,
             0.382683432365090,    -0.923879532511287,     0.923879532511287,    -0.382683432365090,    -0.382683432365091,     0.923879532511287,    -0.923879532511286,     0.382683432365090,
             0.382683432365090,    -0.923879532511287,     0.923879532511287,    -0.382683432365090,    -0.382683432365091,     0.923879532511287,    -0.923879532511286,     0.382683432365090,
             0.382683432365090,    -0.923879532511287,     0.923879532511287,    -0.382683432365090,    -0.382683432365091,     0.923879532511287,    -0.923879532511286,     0.382683432365090,
             0.382683432365090,    -0.923879532511287,     0.923879532511287,    -0.382683432365090,    -0.382683432365091,     0.923879532511287,    -0.923879532511286,     0.382683432365090,
             0.382683432365090,    -0.923879532511287,     0.923879532511287,    -0.382683432365090,    -0.382683432365091,     0.923879532511287,    -0.923879532511286,     0.382683432365090,
             0.382683432365090,    -0.923879532511287,     0.923879532511287,    -0.382683432365090,    -0.382683432365091,     0.923879532511287,    -0.923879532511286,     0.382683432365090,
    },
        // (v, u)=(0,7)
        {
             0.195090322016128,    -0.555570233019602,     0.831469612302545,    -0.980785280403231,     0.980785280403230,    -0.831469612302545,     0.555570233019602,    -0.195090322016129,
             0.195090322016128,    -0.555570233019602,     0.831469612302545,    -0.980785280403231,     0.980785280403230,    -0.831469612302545,     0.555570233019602,    -0.195090322016129,
             0.195090322016128,    -0.555570233019602,     0.831469612302545,    -0.980785280403231,     0.980785280403230,    -0.831469612302545,     0.555570233019602,    -0.195090322016129,
             0.195090322016128,    -0.555570233019602,     0.831469612302545,    -0.980785280403231,     0.980785280403230,    -0.831469612302545,     0.555570233019602,    -0.195090322016129,
             0.195090322016128,    -0.555570233019602,     0.831469612302545,    -0.980785280403231,     0.980785280403230,    -0.831469612302545,     0.555570233019602,    -0.195090322016129,
             0.195090322016128,    -0.555570233019602,     0.831469612302545,    -0.980785280403231,     0.980785280403230,    -0.831469612302545,     0.555570233019602,    -0.195090322016129,
             0.195090322016128,    -0.555570233019602,     0.831469612302545,    -0.980785280403231,     0.980785280403230,    -0.831469612302545,     0.555570233019602,    -0.195090322016129,
             0.195090322016128,    -0.555570233019602,     0.831469612302545,    -0.980785280403231,     0.980785280403230,    -0.831469612302545,     0.555570233019602,    -0.195090322016129,
    },
    },
    {
        // (v, u)=(1,0)
        {
             0.980785280403230,     0.980785280403230,     0.980785280403230,     0.980785280403230,     0.980785280403230,     0.980785280403230,     0.980785280403230,     0.980785280403230,
             0.831469612302545,     0.831469612302545,     0.831469612302545,     0.831469612302545,     0.831469612302545,     0.831469612302545,     0.831469612302545,     0.831469612302545,
             0.555570233019602,     0.555570233019602,     0.555570233019602,     0.555570233019602,     0.555570233019602,     0.555570233019602,     0.555570233019602,     0.555570233019602,
             0.195090322016128,     0.195090322016128,     0.195090322016128,     0.195090322016128,     0.195090322016128,     0.195090322016128,     0.195090322016128,     0.195090322016128,
            -0.195090322016128,    -0.195090322016128,    -0.195090322016128,    -0.195090322016128,    -0.195090322016128,    -0.195090322016128,    -0.195090322016128,    -0.195090322016128,
            -0.555570233019602,    -0.555570233019602,    -0.555570233019602,    -0.555570233019602,    -0.555570233019602,    -0.555570233019602,    -0.555570233019602,    -0.555570233019602,
            -0.831469612302545,    -0.831469612302545,    -0.831469612302545,    -0.831469612302545,    -0.831469612302545,    -0.831469612302545,    -0.831469612302545,    -0.831469612302545,
            -0.980785280403230,    -0.980785280403230,    -0.980785280403230,    -0.980785280403230,    -0.980785280403230,    -0.980785280403230,    -0.980785280403230,    -0.980785280403230,
    },
        // (v, u)=(1,1)
        {
             0.961939766255643,     0.815493156848917,     0.544895106775819,     0.191341716182545,    -0.191341716182545,    -0.544895106775818,    -0.815493156848917,    -0.961939766255643,
             0.815493156848917,     0.691341716182545,     0.461939766255643,     0.162211674410729,    -0.162211674410729,    -0.461939766255643,    -0.691341716182545,    -0.815493156848917,
             0.544895106775819,     0.461939766255643,     0.308658283817455,     0.108386375662370,    -0.108386375662370,    -0.308658283817455,    -0.461939766255643,    -0.544895106775819,
             0.191341716182545,     0.162211674410729,     0.108386375662370,     0.038060233744357,    -0.038060233744357,    -0.108386375662370,    -0.162211674410729,    -0.191341716182545,
            -0.191341716182545,    -0.162211674410729,    -0.108386375662370,    -0.038060233744357,     0.038060233744357,     0.108386375662370,     0.162211674410729,     0.191341716182545,
            -0.544895106775818,    -0.461939766255643,    -0.308658283817455,    -0.108386375662370,     0.108386375662370,     0.308658283817455,     0.461939766255643,     0.544895106775818,
            -0.815493156848917,    -0.691341716182545,    -0.461939766255643,    -0.162211674410729,     0.162211674410729,     0.461939766255643,     0.691341716182545,     0.815493156848917,
            -0.961939766255643,    -0.815493156848917,    -0.544895106775819,    -0.191341716182545,     0.191341716182545,     0.544895106775818,     0.815493156848917,     0.961939766255643,
    },
        // (v, u)=(1,2)
        {
             0.906127446352888,     0.375330277517865,    -0.375330277517865,    -0.906127446352888,    -0.906127446352888,    -0.375330277517866,     0.375330277517865,     0.906127446352888,
             0.768177756711416,     0.318189645143209,    -0.318189645143208,    -0.768177756711416,    -0.768177756711416,    -0.318189645143209,     0.318189645143209,     0.768177756711416,
             0.513279967159337,     0.212607523691814,    -0.212607523691814,    -0.513279967159337,    -0.513279967159337,    -0.212607523691814,     0.212607523691814,     0.513279967159337,
             0.180239955501737,     0.074657834050343,    -0.074657834050343,    -0.180239955501737,    -0.180239955501737,    -0.074657834050343,     0.074657834050343,     0.180239955501737,
            -0.180239955501737,    -0.074657834050343,     0.074657834050343,     0.180239955501737,     0.180239955501737,     0.074657834050343,    -0.074657834050343,    -0.180239955501737,
            -0.513279967159337,    -0.212607523691814,     0.212607523691814,     0.513279967159337,     0.513279967159337,     0.212607523691814,    -0.212607523691814,    -0.513279967159336,
            -0.768177756711416,    -0.318189645143209,     0.318189645143208,     0.768177756711416,     0.768177756711417,     0.318189645143209,    -0.318189645143209,    -0.768177756711416,
            -0.906127446352888,    -0.375330277517865,     0.375330277517865,     0.906127446352888,     0.906127446352888,     0.375330277517866,    -0.375330277517865,    -0.906127446352888,
    },
        // (v, u)=(1,3)
        {
             0.815493156848917,    -0.191341716182545,    -0.961939766255643,    -0.544895106775819,     0.544895106775818,     0.961939766255643,     0.191341716182545,    -0.815493156848917,
             0.691341716182545,    -0.162211674410729,    -0.815493156848917,    -0.461939766255643,     0.461939766255643,     0.815493156848917,     0.162211674410729,    -0.691341716182545,
             0.461939766255643,    -0.108386375662370,    -0.544895106775819,    -0.308658283817455,     0.308658283817455,     0.544895106775819,     0.108386375662370,    -0.461939766255643,
             0.162211674410729,    -0.038060233744357,    -0.191341716182545,    -0.108386375662370,     0.108386375662370,     0.191341716182545,     0.038060233744357,    -0.162211674410729,
            -0.162211674410729,     0.038060233744357,     0.191341716182545,     0.108386375662370,    -0.108386375662369,    -0.191341716182545,    -0.038060233744357,     0.162211674410729,
            -0.461939766255643,     0.108386375662370,     0.544895106775818,     0.308658283817455,    -0.308658283817455,    -0.544895106775818,    -0.108386375662370,     0.461939766255643,
            -0.691341716182545,     0.162211674410729,     0.815493156848917,     0.461939766255643,    -0.461939766255643,    -0.815493156848917,    -0.162211674410729,     0.691341716182545,
            -0.815493156848917,     0.191341716182545,     0.961939766255643,     0.544895106775819,    -0.544895106775818,    -0.961939766255643,    -0.191341716182545,     0.815493156848917,
    },
        // (v, u)=(1,4)
        {
             0.693519922661074,    -0.693519922661074,    -0.693519922661074,     0.693519922661074,     0.693519922661074,    -0.693519922661073,    -0.693519922661073,     0.693519922661073,
             0.587937801209679,    -0.587937801209679,    -0.587937801209680,     0.587937801209679,     0.587937801209680,    -0.587937801209679,    -0.587937801209679,     0.587937801209679,
             0.392847479193551,    -0.392847479193551,    -0.392847479193551,     0.392847479193551,     0.392847479193551,    -0.392847479193551,    -0.392847479193551,     0.392847479193551,
             0.137949689641472,    -0.137949689641472,    -0.137949689641472,     0.137949689641472,     0.137949689641472,    -0.137949689641471,    -0.137949689641471,     0.137949689641471,
            -0.137949689641471,     0.137949689641471,     0.137949689641471,    -0.137949689641471,    -0.137949689641471,     0.137949689641471,     0.137949689641471,    -0.137949689641471,
            -0.392847479193551,     0.392847479193551,     0.392847479193551,    -0.392847479193551,    -0.392847479193551,     0.392847479193550,     0.392847479193551,    -0.392847479193550,
            -0.587937801209679,     0.587937801209679,     0.587937801209680,    -0.587937801209679,    -0.587937801209680,     0.587937801209679,     0.587937801209679,    -0.587937801209679,
            -0.693519922661074,     0.693519922661074,     0.693519922661074,    -0.693519922661074,    -0.693519922661074,     0.693519922661073,     0.693519922661073,    -0.693519922661073,
    },
        // (v, u)=(1,5)
        {
             0.544895106775819,    -0.961939766255643,     0.191341716182545,     0.815493156848917,    -0.815493156848917,    -0.191341716182545,     0.961939766255644,    -0.544895106775818,
             0.461939766255643,    -0.815493156848917,     0.162211674410729,     0.691341716182545,    -0.691341716182545,    -0.162211674410729,     0.815493156848917,    -0.461939766255643,
             0.308658283817455,    -0.544895106775819,     0.108386375662370,     0.461939766255644,    -0.461939766255643,    -0.108386375662369,     0.544895106775819,    -0.308658283817455,
             0.108386375662370,    -0.191341716182545,     0.038060233744357,     0.162211674410729,    -0.162211674410729,    -0.038060233744357,     0.191341716182545,    -0.108386375662370,
            -0.108386375662370,     0.191341716182545,    -0.038060233744357,    -0.162211674410729,     0.162211674410729,     0.038060233744357,    -0.191341716182545,     0.108386375662369,
            -0.308658283817455,     0.544895106775818,    -0.108386375662370,    -0.461939766255643,     0.461939766255643,     0.108386375662369,    -0.544895106775819,     0.308658283817455,
            -0.461939766255643,     0.815493156848917,    -0.162211674410729,    -0.691341716182545,     0.691341716182545,     0.162211674410729,    -0.815493156848917,     0.461939766255643,
            -0.544895106775819,     0.961939766255643,    -0.191341716182545,    -0.815493156848917,     0.815493156848917,     0.191341716182545,    -0.961939766255644,     0.544895106775818,
    },
        // (v, u)=(1,6)
        {
             0.375330277517865,    -0.906127446352888,     0.906127446352888,    -0.375330277517865,    -0.375330277517866,     0.906127446352888,    -0.906127446352887,     0.375330277517865,
             0.318189645143209,    -0.768177756711416,     0.768177756711416,    -0.318189645143209,    -0.318189645143209,     0.768177756711416,    -0.768177756711416,     0.318189645143208,
             0.212607523691814,    -0.513279967159337,     0.513279967159337,    -0.212607523691814,    -0.212607523691815,     0.513279967159337,    -0.513279967159337,     0.212607523691814,
             0.074657834050343,    -0.180239955501737,     0.180239955501737,    -0.074657834050343,    -0.074657834050343,     0.180239955501737,    -0.180239955501737,     0.074657834050343,
            -0.074657834050343,     0.180239955501737,    -0.180239955501737,     0.074657834050343,     0.074657834050343,    -0.180239955501737,     0.180239955501737,    -0.074657834050343,
            -0.212607523691814,     0.513279967159337,    -0.513279967159336,     0.212607523691814,     0.212607523691814,    -0.513279967159337,     0.513279967159336,    -0.212607523691814,
            -0.318189645143209,     0.768177756711417,    -0.768177756711416,     0.318189645143209,     0.318189645143209,    -0.768177756711416,     0.768177756711416,    -0.318189645143208,
            -0.375330277517865,     0.906127446352888,    -0.906127446352888,     0.375330277517865,     0.375330277517866,    -0.906127446352888,     0.906127446352887,    -0.375330277517865,
    },
        // (v, u)=(1,7)
        {
             0.191341716182545,    -0.544895106775819,     0.815493156848917,    -0.961939766255644,     0.961939766255643,    -0.815493156848917,     0.544895106775818,    -0.191341716182545,
             0.162211674410729,    -0.461939766255643,     0.691341716182545,    -0.815493156848917,     0.815493156848917,    -0.691341716182545,     0.461939766255643,    -0.162211674410729,
             0.108386375662370,    -0.308658283817455,     0.461939766255644,    -0.544895106775819,     0.544895106775819,    -0.461939766255643,     0.308658283817455,    -0.108386375662370,
             0.038060233744357,    -0.108386375662370,     0.162211674410729,    -0.191341716182545,     0.191341716182545,    -0.162211674410729,     0.108386375662370,    -0.038060233744357,
            -0.038060233744357,     0.108386375662370,    -0.162211674410729,     0.191341716182545,    -0.191341716182545,     0.162211674410729,    -0.108386375662369,     0.038060233744357,
            -0.108386375662370,     0.308658283817455,    -0.461939766255643,     0.544895106775819,    -0.544895106775818,     0.461939766255643,    -0.308658283817455,     0.108386375662370,
            -0.162211674410729,     0.461939766255643,    -0.691341716182545,     0.815493156848917,    -0.815493156848917,     0.691341716182545,    -0.461939766255643,     0.162211674410729,
            -0.191341716182545,     0.544895106775819,    -0.815493156848917,     0.961939766255644,    -0.961939766255643,     0.815493156848917,    -0.544895106775818,     0.191341716182545,
    },
    },
    {
        // (v, u)=(2,0)
        {
             0.923879532511287,     0.923879532511287,     0.923879532511287,     0.923879532511287,     0.923879532511287,     0.923879532511287,     0.923879532511287,     0.923879532511287,
             0.382683432365090,     0.382683432365090,     0.382683432365090,     0.382683432365090,     0.382683432365090,     0.382683432365090,     0.382683432365090,     0.382683432365090,
            -0.382683432365090,    -0.382683432365090,    -0.382683432365090,    -0.382683432365090,    -0.382683432365090,    -0.382683432365090,    -0.382683432365090,    -0.382683432365090,
            -0.923879532511287,    -0.923879532511287,    -0.923879532511287,    -0.923879532511287,    -0.923879532511287,    -0.923879532511287,    -0.923879532511287,    -0.923879532511287,
            -0.923879532511287,    -0.923879532511287,    -0.923879532511287,    -0.923879532511287,    -0.923879532511287,    -0.923879532511287,    -0.923879532511287,    -0.923879532511287,
            -0.382683432365090,    -0.382683432365090,    -0.382683432365090,    -0.382683432365090,    -0.382683432365090,    -0.382683432365090,    -0.382683432365090,    -0.382683432365090,
             0.382683432365090,     0.382683432365090,     0.382683432365090,     0.382683432365090,     0.382683432365090,     0.382683432365090,     0.382683432365090,     0.382683432365090,
             0.923879532511287,     0.923879532511287,     0.923879532511287,     0.923879532511287,     0.923879532511287,     0.923879532511287,     0.923879532511287,     0.923879532511287,
    },
        // (v, u)=(2,1)
        {
             0.906127446352888,     0.768177756711416,     0.513279967159337,     0.180239955501737,    -0.180239955501737,    -0.513279967159337,    -0.768177756711416,    -0.906127446352888,
             0.375330277517865,     0.318189645143209,     0.212607523691814,     0.074657834050343,    -0.074657834050343,    -0.212607523691814,    -0.318189645143209,    -0.375330277517865,
            -0.375330277517865,    -0.318189645143208,    -0.212607523691814,    -0.074657834050343,     0.074657834050343,     0.212607523691814,     0.318189645143208,     0.375330277517865,
            -0.906127446352888,    -0.768177756711416,    -0.513279967159337,    -0.180239955501737,     0.180239955501737,     0.513279967159337,     0.768177756711416,     0.906127446352888,
            -0.906127446352888,    -0.768177756711416,    -0.513279967159337,    -0.180239955501737,     0.180239955501737,     0.513279967159337,     0.768177756711417,     0.906127446352888,
            -0.375330277517866,    -0.318189645143209,    -0.212607523691814,    -0.074657834050343,     0.074657834050343,     0.212607523691814,     0.318189645143209,     0.375330277517866,
             0.375330277517865,     0.318189645143209,     0.212607523691814,     0.074657834050343,    -0.074657834050343,    -0.212607523691814,    -0.318189645143209,    -0.375330277517865,
             0.906127446352888,     0.768177756711416,     0.513279967159337,     0.180239955501737,    -0.180239955501737,    -0.513279967159336,    -0.768177756711416,    -0.906127446352888,
    },
        // (v, u)=(2,2)
        {
             0.853553390593274,     0.353553390593274,    -0.353553390593274,    -0.853553390593274,    -0.853553390593274,    -0.353553390593274,     0.353553390593274,     0.853553390593274,
             0.353553390593274,     0.146446609406726,    -0.146446609406726,    -0.353553390593274,    -0.353553390593274,    -0.146446609406726,     0.146446609406726,     0.353553390593274,
            -0.353553390593274,    -0.146446609406726,     0.146446609406726,     0.353553390593274,     0.353553390593274,     0.146446609406726,    -0.146446609406726,    -0.353553390593274,
            -0.853553390593274,    -0.353553390593274,     0.353553390593274,     0.853553390593274,     0.853553390593274,     0.353553390593274,    -0.353553390593274,    -0.853553390593274,
            -0.853553390593274,    -0.353553390593274,     0.353553390593274,     0.853553390593274,     0.853553390593274,     0.353553390593274,    -0.353553390593274,    -0.853553390593274,
            -0.353553390593274,    -0.146446609406726,     0.146446609406726,     0.353553390593274,     0.353553390593274,     0.146446609406727,    -0.146446609406727,    -0.353553390593274,
             0.353553390593274,     0.146446609406726,    -0.146446609406726,    -0.353553390593274,    -0.353553390593274,    -0.146446609406727,     0.146446609406726,     0.353553390593274,
             0.853553390593274,     0.353553390593274,    -0.353553390593274,    -0.853553390593274,    -0.853553390593274,    -0.353553390593274,     0.353553390593274,     0.853553390593273,
    },
        // (v, u)=(2,3)
        {
             0.768177756711416,    -0.180239955501737,    -0.906127446352888,    -0.513279967159337,     0.513279967159336,     0.906127446352888,     0.180239955501737,    -0.768177756711416,
             0.318189645143209,    -0.074657834050343,    -0.375330277517865,    -0.212607523691814,     0.212607523691814,     0.375330277517865,     0.074657834050343,    -0.318189645143209,
            -0.318189645143208,     0.074657834050343,     0.375330277517865,     0.212607523691814,    -0.212607523691814,    -0.375330277517865,    -0.074657834050343,     0.318189645143208,
            -0.768177756711416,     0.180239955501737,     0.906127446352888,     0.513279967159337,    -0.513279967159336,    -0.906127446352888,    -0.180239955501737,     0.768177756711416,
            -0.768177756711416,     0.180239955501737,     0.906127446352888,     0.513279967159337,    -0.513279967159336,    -0.906127446352888,    -0.180239955501737,     0.768177756711416,
            -0.318189645143209,     0.074657834050343,     0.375330277517866,     0.212607523691814,    -0.212607523691814,    -0.375330277517866,    -0.074657834050343,     0.318189645143209,
             0.318189645143209,    -0.074657834050343,    -0.375330277517865,    -0.212607523691814,     0.212607523691814,     0.375330277517865,     0.074657834050343,    -0.318189645143209,
             0.768177756711416,    -0.180239955501737,    -0.906127446352888,    -0.513279967159337,     0.513279967159336,     0.906127446352888,     0.180239955501737,    -0.768177756711416,
    },
        // (v, u)=(2,4)
        {
             0.653281482438188,    -0.653281482438188,    -0.653281482438188,     0.653281482438188,     0.653281482438188,    -0.653281482438188,    -0.653281482438188,     0.653281482438187,
             0.270598050073099,    -0.270598050073099,    -0.270598050073099,     0.270598050073098,     0.270598050073099,    -0.270598050073098,    -0.270598050073098,     0.270598050073098,
            -0.270598050073099,     0.270598050073098,     0.270598050073099,    -0.270598050073098,    -0.270598050073099,     0.270598050073098,     0.270598050073098,    -0.270598050073098,
            -0.653281482438188,     0.653281482438188,     0.653281482438188,    -0.653281482438188,    -0.653281482438188,     0.653281482438188,     0.653281482438188,    -0.653281482438187,
            -0.653281482438188,     0.653281482438188,     0.653281482438189,    -0.653281482438188,    -0.653281482438189,     0.653281482438188,     0.653281482438188,    -0.653281482438187,
            -0.270598050073099,     0.270598050073099,     0.270598050073099,    -0.270598050073099,    -0.270598050073099,     0.270598050073099,     0.270598050073099,    -0.270598050073099,
             0.270598050073099,    -0.270598050073099,    -0.270598050073099,     0.270598050073099,     0.270598050073099,    -0.270598050073098,    -0.270598050073099,     0.270598050073098,
             0.653281482438188,    -0.653281482438188,    -0.653281482438188,     0.653281482438188,     0.653281482438188,    -0.653281482438187,    -0.653281482438188,     0.653281482438187,
    },
        // (v, u)=(2,5)
        {
             0.513279967159337,    -0.906127446352888,     0.180239955501737,     0.768177756711417,    -0.768177756711416,    -0.180239955501737,     0.906127446352888,    -0.513279967159336,
             0.212607523691814,    -0.375330277517865,     0.074657834050343,     0.318189645143209,    -0.318189645143209,    -0.074657834050343,     0.375330277517865,    -0.212607523691814,
            -0.212607523691814,     0.375330277517865,    -0.074657834050343,    -0.318189645143209,     0.318189645143208,     0.074657834050343,    -0.375330277517865,     0.212607523691814,
            -0.513279967159337,     0.906127446352888,    -0.180239955501737,    -0.768177756711417,     0.768177756711416,     0.180239955501737,    -0.906127446352888,     0.513279967159336,
            -0.513279967159337,     0.906127446352888,    -0.180239955501737,    -0.768177756711417,     0.768177756711416,     0.180239955501737,    -0.906127446352888,     0.513279967159336,
            -0.212607523691814,     0.375330277517866,    -0.074657834050343,    -0.318189645143209,     0.318189645143209,     0.074657834050343,    -0.375330277517866,     0.212607523691814,
             0.212607523691814,    -0.375330277517865,     0.074657834050343,     0.318189645143209,    -0.318189645143209,    -0.074657834050343,     0.375330277517866,    -0.212607523691814,
             0.513279967159337,    -0.906127446352888,     0.180239955501737,     0.768177756711416,    -0.768177756711416,    -0.180239955501737,     0.906127446352888,    -0.513279967159336,
    },
        // (v, u)=(2,6)
        {
             0.353553390593274,    -0.853553390593274,     0.853553390593274,    -0.353553390593274,    -0.353553390593275,     0.853553390593274,    -0.853553390593273,     0.353553390593274,
             0.146446609406726,    -0.353553390593274,     0.353553390593274,    -0.146446609406726,    -0.146446609406727,     0.353553390593274,    -0.353553390593274,     0.146446609406726,
            -0.146446609406726,     0.353553390593274,    -0.353553390593274,     0.146446609406726,     0.146446609406727,    -0.353553390593274,     0.353553390593274,    -0.146446609406726,
            -0.353553390593274,     0.853553390593274,    -0.853553390593274,     0.353553390593274,     0.353553390593275,    -0.853553390593274,     0.853553390593273,    -0.353553390593274,
            -0.353553390593274,     0.853553390593274,    -0.853553390593274,     0.353553390593274,     0.353553390593275,    -0.853553390593274,     0.853553390593274,    -0.353553390593274,
            -0.146446609406726,     0.353553390593274,    -0.353553390593274,     0.146446609406726,     0.146446609406727,    -0.353553390593274,     0.353553390593274,    -0.146446609406726,
             0.146446609406726,    -0.353553390593274,     0.353553390593274,    -0.146446609406726,    -0.146446609406727,     0.353553390593274,    -0.353553390593274,     0.146446609406726,
             0.353553390593274,    -0.853553390593274,     0.853553390593273,    -0.353553390593274,    -0.353553390593274,     0.853553390593274,    -0.853553390593273,     0.353553390593273,
    },
        // (v, u)=(2,7)
        {
             0.180239955501737,    -0.513279967159337,     0.768177756711417,    -0.906127446352888,     0.906127446352888,    -0.768177756711416,     0.513279967159336,    -0.180239955501737,
             0.074657834050343,    -0.212607523691814,     0.318189645143209,    -0.375330277517865,     0.375330277517865,    -0.318189645143208,     0.212607523691814,    -0.074657834050343,
            -0.074657834050343,     0.212607523691814,    -0.318189645143209,     0.375330277517865,    -0.375330277517865,     0.318189645143208,    -0.212607523691814,     0.074657834050343,
            -0.180239955501737,     0.513279967159337,    -0.768177756711417,     0.906127446352888,    -0.906127446352888,     0.768177756711416,    -0.513279967159336,     0.180239955501737,
            -0.180239955501737,     0.513279967159337,    -0.768177756711417,     0.906127446352888,    -0.906127446352888,     0.768177756711416,    -0.513279967159336,     0.180239955501737,
            -0.074657834050343,     0.212607523691814,    -0.318189645143209,     0.375330277517866,    -0.375330277517866,     0.318189645143209,    -0.212607523691814,     0.074657834050343,
             0.074657834050343,    -0.212607523691814,     0.318189645143209,    -0.375330277517866,     0.375330277517865,    -0.318189645143209,     0.212607523691814,    -0.074657834050343,
             0.180239955501737,    -0.513279967159337,     0.768177756711416,    -0.906127446352888,     0.906127446352888,    -0.768177756711416,     0.513279967159336,    -0.180239955501737,
    },
    },
    {
        // (v, u)=(3,0)
        {
             0.831469612302545,     0.831469612302545,     0.831469612302545,     0.831469612302545,     0.831469612302545,     0.831469612302545,     0.831469612302545,     0.831469612302545,
            -0.195090322016128,    -0.195090322016128,    -0.195090322016128,    -0.195090322016128,    -0.195090322016128,    -0.195090322016128,    -0.195090322016128,    -0.195090322016128,
            -0.980785280403230,    -0.980785280403230,    -0.980785280403230,    -0.980785280403230,    -0.980785280403230,    -0.980785280403230,    -0.980785280403230,    -0.980785280403230,
            -0.555570233019602,    -0.555570233019602,    -0.555570233019602,    -0.555570233019602,    -0.555570233019602,    -0.555570233019602,    -0.555570233019602,    -0.555570233019602,
             0.555570233019602,     0.555570233019602,     0.555570233019602,     0.555570233019602,     0.555570233019602,     0.555570233019602,     0.555570233019602,     0.555570233019602,
             0.980785280403230,     0.980785280403230,     0.980785280403230,     0.980785280403230,     0.980785280403230,     0.980785280403230,     0.980785280403230,     0.980785280403230,
             0.195090322016129,     0.195090322016129,     0.195090322016129,     0.195090322016129,     0.195090322016129,     0.195090322016129,     0.195090322016129,     0.195090322016129,
            -0.831469612302545,    -0.831469612302545,    -0.831469612302545,    -0.831469612302545,    -0.831469612302545,    -0.831469612302545,    -0.831469612302545,    -0.831469612302545,
    },
        // (v, u)=(3,1)
        {
             0.815493156848917,     0.691341716182545,     0.461939766255643,     0.162211674410729,    -0.162211674410729,    -0.461939766255643,    -0.691341716182545,    -0.815493156848917,
            -0.191341716182545,    -0.162211674410729,    -0.108386375662370,    -0.038060233744357,     0.038060233744357,     0.108386375662370,     0.162211674410729,     0.191341716182545,
            -0.961939766255643,    -0.815493156848917,    -0.544895106775819,    -0.191341716182545,     0.191341716182545,     0.544895106775818,     0.815493156848917,     0.961939766255643,
            -0.544895106775819,    -0.461939766255643,    -0.308658283817455,    -0.108386375662370,     0.108386375662370,     0.308658283817455,     0.461939766255643,     0.544895106775819,
             0.544895106775818,     0.461939766255643,     0.308658283817455,     0.108386375662370,    -0.108386375662369,    -0.308658283817455,    -0.461939766255643,    -0.544895106775818,
             0.961939766255643,     0.815493156848917,     0.544895106775819,     0.191341716182545,    -0.191341716182545,    -0.544895106775818,    -0.815493156848917,    -0.961939766255643,
             0.191341716182545,     0.162211674410729,     0.108386375662370,     0.038060233744357,    -0.038060233744357,    -0.108386375662370,    -0.162211674410729,    -0.191341716182545,
            -0.815493156848917,    -0.691341716182545,    -0.461939766255643,    -0.162211674410729,     0.162211674410729,     0.461939766255643,     0.691341716182545,     0.815493156848917,
    },
        // (v, u)=(3,2)
        {
             0.768177756711416,     0.318189645143209,    -0.318189645143208,    -0.768177756711416,    -0.768177756711416,    -0.318189645143209,     0.318189645143209,     0.768177756711416,
            -0.180239955501737,    -0.074657834050343,     0.074657834050343,     0.180239955501737,     0.180239955501737,     0.074657834050343,    -0.074657834050343,    -0.180239955501737,
            -0.906127446352888,    -0.375330277517865,     0.375330277517865,     0.906127446352888,     0.906127446352888,     0.375330277517866,    -0.375330277517865,    -0.906127446352888,
            -0.513279967159337,    -0.212607523691814,     0.212607523691814,     0.513279967159337,     0.513279967159337,     0.212607523691814,    -0.212607523691814,    -0.513279967159337,
             0.513279967159336,     0.212607523691814,    -0.212607523691814,    -0.513279967159336,    -0.513279967159336,    -0.212607523691814,     0.212607523691814,     0.513279967159336,
             0.906127446352888,     0.375330277517865,    -0.375330277517865,    -0.906127446352888,    -0.906127446352888,    -0.375330277517866,     0.375330277517865,     0.906127446352888,
             0.180239955501737,     0.074657834050343,    -0.074657834050343,    -0.180239955501737,    -0.180239955501737,    -0.074657834050343,     0.074657834050343,     0.180239955501737,
            -0.768177756711416,    -0.318189645143209,     0.318189645143208,     0.768177756711416,     0.768177756711416,     0.318189645143209,    -0.318189645143209,    -0.768177756711416,
    },
        // (v, u)=(3,3)
        {
             0.691341716182545,    -0.162211674410729,    -0.815493156848917,    -0.461939766255643,     0.461939766255643,     0.815493156848917,     0.162211674410729,    -0.691341716182545,
            -0.162211674410729,     0.038060233744357,     0.191341716182545,     0.108386375662370,    -0.108386375662369,    -0.191341716182545,    -0.038060233744357,     0.162211674410729,
            -0.815493156848917,     0.191341716182545,     0.961939766255643,     0.544895106775819,    -0.544895106775818,    -0.961939766255643,    -0.191341716182545,     0.815493156848917,
            -0.461939766255643,     0.108386375662370,     0.544895106775819,     0.308658283817455,    -0.308658283817455,    -0.544895106775819,    -0.108386375662370,     0.461939766255643,
             0.461939766255643,    -0.108386375662369,    -0.544895106775818,    -0.308658283817455,     0.308658283817455,     0.544895106775818,     0.108386375662370,    -0.461939766255643,
             0.815493156848917,    -0.191341716182545,    -0.961939766255643,    -0.544895106775819,     0.544895106775818,     0.961939766255643,     0.191341716182545,    -0.815493156848917,
             0.162211674410729,    -0.038060233744357,    -0.191341716182545,    -0.108386375662370,     0.108386375662370,     0.191341716182545,     0.038060233744357,    -0.162211674410729,
            -0.691341716182545,     0.162211674410729,     0.815493156848917,     0.461939766255643,    -0.461939766255643,    -0.815493156848917,    -0.162211674410729,     0.691341716182545,
    },
        // (v, u)=(3,4)
        {
             0.587937801209679,    -0.587937801209679,    -0.587937801209680,     0.587937801209679,     0.587937801209680,    -0.587937801209679,    -0.587937801209679,     0.587937801209679,
            -0.137949689641471,     0.137949689641471,     0.137949689641471,    -0.137949689641471,    -0.137949689641471,     0.137949689641471,     0.137949689641471,    -0.137949689641471,
            -0.693519922661074,     0.693519922661074,     0.693519922661074,    -0.693519922661074,    -0.693519922661074,     0.693519922661073,     0.693519922661073,    -0.693519922661073,
            -0.392847479193551,     0.392847479193551,     0.392847479193551,    -0.392847479193551,    -0.392847479193551,     0.392847479193551,     0.392847479193551,    -0.392847479193551,
             0.392847479193551,    -0.392847479193551,    -0.392847479193551,     0.392847479193551,     0.392847479193551,    -0.392847479193550,    -0.392847479193551,     0.392847479193550,
             0.693519922661074,    -0.693519922661074,    -0.693519922661074,     0.693519922661074,     0.693519922661074,    -0.693519922661073,    -0.693519922661073,     0.693519922661073,
             0.137949689641472,    -0.137949689641472,    -0.137949689641472,     0.137949689641472,     0.137949689641472,    -0.137949689641472,    -0.137949689641472,     0.137949689641472,
            -0.587937801209679,     0.587937801209679,     0.587937801209679,    -0.587937801209679,    -0.587937801209679,     0.587937801209679,     0.587937801209679,    -0.587937801209679,
    },
        // (v, u)=(3,5)
        {
             0.461939766255643,    -0.815493156848917,     0.162211674410729,     0.691341716182545,    -0.691341716182545,    -0.162211674410729,     0.815493156848917,    -0.461939766255643,
            -0.108386375662370,     0.191341716182545,    -0.038060233744357,    -0.162211674410729,     0.162211674410729,     0.038060233744357,    -0.191341716182545,     0.108386375662369,
            -0.544895106775819,     0.961939766255643,    -0.191341716182545,    -0.815493156848917,     0.815493156848917,     0.191341716182545,    -0.961939766255644,     0.544895106775818,
            -0.308658283817455,     0.544895106775819,    -0.108386375662370,    -0.461939766255643,     0.461939766255643,     0.108386375662369,    -0.544895106775819,     0.308658283817455,
             0.308658283817455,    -0.544895106775818,     0.108386375662370,     0.461939766255643,    -0.461939766255643,    -0.108386375662369,     0.544895106775818,    -0.308658283817455,
             0.544895106775819,    -0.961939766255643,     0.191341716182545,     0.815493156848917,    -0.815493156848917,    -0.191341716182545,     0.961939766255644,    -0.544895106775818,
             0.108386375662370,    -0.191341716182545,     0.038060233744357,     0.162211674410729,    -0.162211674410729,    -0.038060233744357,     0.191341716182545,    -0.108386375662370,
            -0.461939766255643,     0.815493156848917,    -0.162211674410729,    -0.691341716182545,     0.691341716182545,     0.162211674410729,    -0.815493156848917,     0.461939766255643,
    },
        // (v, u)=(3,6)
        {
             0.318189645143209,    -0.768177756711416,     0.768177756711416,    -0.318189645143209,    -0.318189645143209,     0.768177756711416,    -0.768177756711416,     0.318189645143208,
            -0.074657834050343,     0.180239955501737,    -0.180239955501737,     0.074657834050343,     0.074657834050343,    -0.180239955501737,     0.180239955501737,    -0.074657834050343,
            -0.375330277517865,     0.906127446352888,    -0.906127446352888,     0.375330277517865,     0.375330277517866,    -0.906127446352888,     0.906127446352887,    -0.375330277517865,
            -0.212607523691814,     0.513279967159337,    -0.513279967159337,     0.212607523691814,     0.212607523691815,    -0.513279967159337,     0.513279967159337,    -0.212607523691814,
             0.212607523691814,    -0.513279967159336,     0.513279967159336,    -0.212607523691814,    -0.212607523691814,     0.513279967159336,    -0.513279967159336,     0.212607523691814,
             0.375330277517865,    -0.906127446352888,     0.906127446352888,    -0.375330277517865,    -0.375330277517866,     0.906127446352888,    -0.906127446352887,     0.375330277517865,
             0.074657834050343,    -0.180239955501737,     0.180239955501737,    -0.074657834050343,    -0.074657834050343,     0.180239955501737,    -0.180239955501737,     0.074657834050343,
            -0.318189645143209,     0.768177756711416,    -0.768177756711416,     0.318189645143209,     0.318189645143209,    -0.768177756711416,     0.768177756711416,    -0.318189645143208,
    },
        // (v, u)=(3,7)
        {
             0.162211674410729,    -0.461939766255643,     0.691341716182545,    -0.815493156848917,     0.815493156848917,    -0.691341716182545,     0.461939766255643,    -0.162211674410729,
            -0.038060233744357,     0.108386375662370,    -0.162211674410729,     0.191341716182545,    -0.191341716182545,     0.162211674410729,    -0.108386375662369,     0.038060233744357,
            -0.191341716182545,     0.544895106775819,    -0.815493156848917,     0.961939766255644,    -0.961939766255643,     0.815493156848917,    -0.544895106775818,     0.191341716182545,
            -0.108386375662370,     0.308658283817455,    -0.461939766255643,     0.544895106775819,    -0.544895106775819,     0.461939766255643,    -0.308658283817455,     0.108386375662370,
             0.108386375662370,    -0.308658283817455,     0.461939766255643,    -0.544895106775818,     0.544895106775818,    -0.461939766255643,     0.308658283817455,    -0.108386375662370,
             0.191341716182545,    -0.544895106775819,     0.815493156848917,    -0.961939766255644,     0.961939766255643,    -0.815493156848917,     0.544895106775818,    -0.191341716182545,
             0.038060233744357,    -0.108386375662370,     0.162211674410729,    -0.191341716182545,     0.191341716182545,    -0.162211674410729,     0.108386375662370,    -0.038060233744357,
            -0.162211674410729,     0.461939766255643,    -0.691341716182545,     0.815493156848917,    -0.815493156848917,     0.691341716182545,    -0.461939766255643,     0.162211674410729,
    },
    },
    {
        // (v, u)=(4,0)
        {
             0.707106781186548,     0.707106781186548,     0.707106781186548,     0.707106781186548,     0.707106781186548,     0.707106781186548,     0.707106781186548,     0.707106781186548,
            -0.707106781186547,    -0.707106781186547,    -0.707106781186547,    -0.707106781186547,    -0.707106781186547,    -0.707106781186547,    -0.707106781186547,    -0.707106781186547,
            -0.707106781186548,    -0.707106781186548,    -0.707106781186548,    -0.707106781186548,    -0.707106781186548,    -0.707106781186548,    -0.707106781186548,    -0.707106781186548,
             0.707106781186547,     0.707106781186547,     0.707106781186547,     0.707106781186547,     0.707106781186547,     0.707106781186547,     0.707106781186547,     0.707106781186547,
             0.707106781186548,     0.707106781186548,     0.707106781186548,     0.707106781186548,     0.707106781186548,     0.707106781186548,     0.707106781186548,     0.707106781186548,
            -0.707106781186547,    -0.707106781186547,    -0.707106781186547,    -0.707106781186547,    -0.707106781186547,    -0.707106781186547,    -0.707106781186547,    -0.707106781186547,
            -0.707106781186547,    -0.707106781186547,    -0.707106781186547,    -0.707106781186547,    -0.707106781186547,    -0.707106781186547,    -0.707106781186547,    -0.707106781186547,
             0.707106781186547,     0.707106781186547,     0.707106781186547,     0.707106781186547,     0.707106781186547,     0.707106781186547,     0.707106781186547,     0.707106781186547,
    },
        // (v, u)=(4,1)
        {
             0.693519922661074,     0.587937801209679,     0.392847479193551,     0.137949689641472,    -0.137949689641471,    -0.392847479193551,    -0.587937801209679,    -0.693519922661074,
            -0.693519922661074,    -0.587937801209679,    -0.392847479193551,    -0.137949689641472,     0.137949689641471,     0.392847479193551,     0.587937801209679,     0.693519922661074,
            -0.693519922661074,    -0.587937801209680,    -0.392847479193551,    -0.137949689641472,     0.137949689641471,     0.392847479193551,     0.587937801209680,     0.693519922661074,
             0.693519922661074,     0.587937801209679,     0.392847479193551,     0.137949689641472,    -0.137949689641471,    -0.392847479193551,    -0.587937801209679,    -0.693519922661074,
             0.693519922661074,     0.587937801209680,     0.392847479193551,     0.137949689641472,    -0.137949689641471,    -0.392847479193551,    -0.587937801209680,    -0.693519922661074,
            -0.693519922661073,    -0.587937801209679,    -0.392847479193551,    -0.137949689641471,     0.137949689641471,     0.392847479193550,     0.587937801209679,     0.693519922661073,
            -0.693519922661073,    -0.587937801209679,    -0.392847479193551,    -0.137949689641471,     0.137949689641471,     0.392847479193551,     0.587937801209679,     0.693519922661073,
             0.693519922661073,     0.587937801209679,     0.392847479193551,     0.137949689641471,    -0.137949689641471,    -0.392847479193550,    -0.587937801209679,    -0.693519922661073,
    },
        // (v, u)=(4,2)
        {
             0.653281482438188,     0.270598050073099,    -0.270598050073099,    -0.653281482438188,    -0.653281482438188,    -0.270598050073099,     0.270598050073099,     0.653281482438188,
            -0.653281482438188,    -0.270598050073099,     0.270598050073098,     0.653281482438188,     0.653281482438188,     0.270598050073099,    -0.270598050073099,    -0.653281482438188,
            -0.653281482438188,    -0.270598050073099,     0.270598050073099,     0.653281482438188,     0.653281482438189,     0.270598050073099,    -0.270598050073099,    -0.653281482438188,
             0.653281482438188,     0.270598050073098,    -0.270598050073098,    -0.653281482438188,    -0.653281482438188,    -0.270598050073099,     0.270598050073099,     0.653281482438188,
             0.653281482438188,     0.270598050073099,    -0.270598050073099,    -0.653281482438188,    -0.653281482438189,    -0.270598050073099,     0.270598050073099,     0.653281482438188,
            -0.653281482438188,    -0.270598050073098,     0.270598050073098,     0.653281482438188,     0.653281482438188,     0.270598050073099,    -0.270598050073098,    -0.653281482438187,
            -0.653281482438188,    -0.270598050073098,     0.270598050073098,     0.653281482438188,     0.653281482438188,     0.270598050073099,    -0.270598050073099,    -0.653281482438188,
             0.653281482438187,     0.270598050073098,    -0.270598050073098,    -0.653281482438187,    -0.653281482438187,    -0.270598050073099,     0.270598050073098,     0.653281482438187,
    },
        // (v, u)=(4,3)
        {
             0.587937801209679,    -0.137949689641471,    -0.693519922661074,    -0.392847479193551,     0.392847479193551,     0.693519922661074,     0.137949689641472,    -0.587937801209679,
            -0.587937801209679,     0.137949689641471,     0.693519922661074,     0.392847479193551,    -0.392847479193551,    -0.693519922661074,    -0.137949689641472,     0.587937801209679,
            -0.587937801209680,     0.137949689641471,     0.693519922661074,     0.392847479193551,    -0.392847479193551,    -0.693519922661074,    -0.137949689641472,     0.587937801209679,
             0.587937801209679,    -0.137949689641471,    -0.693519922661074,    -0.392847479193551,     0.392847479193551,     0.693519922661074,     0.137949689641472,    -0.587937801209679,
             0.587937801209680,    -0.137949689641471,    -0.693519922661074,    -0.392847479193551,     0.392847479193551,     0.693519922661074,     0.137949689641472,    -0.587937801209679,
            -0.587937801209679,     0.137949689641471,     0.693519922661073,     0.392847479193551,    -0.392847479193550,    -0.693519922661073,    -0.137949689641472,     0.587937801209679,
            -0.587937801209679,     0.137949689641471,     0.693519922661073,     0.392847479193551,    -0.392847479193551,    -0.693519922661073,    -0.137949689641472,     0.587937801209679,
             0.587937801209679,    -0.137949689641471,    -0.693519922661073,    -0.392847479193551,     0.392847479193550,     0.693519922661073,     0.137949689641472,    -0.587937801209679,
    },
        // (v, u)=(4,4)
        {
             0.500000000000000,    -0.500000000000000,    -0.500000000000000,     0.500000000000000,     0.500000000000000,    -0.499999999999999,    -0.500000000000000,     0.499999999999999,
            -0.500000000000000,     0.500000000000000,     0.500000000000000,    -0.500000000000000,    -0.500000000000000,     0.499999999999999,     0.500000000000000,    -0.499999999999999,
            -0.500000000000000,     0.500000000000000,     0.500000000000000,    -0.500000000000000,    -0.500000000000000,     0.500000000000000,     0.500000000000000,    -0.499999999999999,
             0.500000000000000,    -0.500000000000000,    -0.500000000000000,     0.500000000000000,     0.500000000000000,    -0.499999999999999,    -0.500000000000000,     0.499999999999999,
             0.500000000000000,    -0.500000000000000,    -0.500000000000000,     0.500000000000000,     0.500000000000000,    -0.500000000000000,    -0.500000000000000,     0.499999999999999,
            -0.499999999999999,     0.499999999999999,     0.500000000000000,    -0.499999999999999,    -0.500000000000000,     0.499999999999999,     0.499999999999999,    -0.499999999999999,
            -0.500000000000000,     0.500000000000000,     0.500000000000000,    -0.500000000000000,    -0.500000000000000,     0.499999999999999,     0.499999999999999,    -0.499999999999999,
             0.499999999999999,    -0.499999999999999,    -0.499999999999999,     0.499999999999999,     0.499999999999999,    -0.499999999999999,    -0.499999999999999,     0.499999999999999,
    },
        // (v, u)=(4,5)
        {
             0.392847479193551,    -0.693519922661074,     0.137949689641472,     0.587937801209680,    -0.587937801209679,    -0.137949689641471,     0.693519922661074,    -0.392847479193551,
            -0.392847479193551,     0.693519922661074,    -0.137949689641472,    -0.587937801209679,     0.587937801209679,     0.137949689641471,    -0.693519922661074,     0.392847479193551,
            -0.392847479193551,     0.693519922661074,    -0.137949689641472,    -0.587937801209680,     0.587937801209679,     0.137949689641471,    -0.693519922661074,     0.392847479193551,
             0.392847479193551,    -0.693519922661074,     0.137949689641472,     0.587937801209679,    -0.587937801209679,    -0.137949689641471,     0.693519922661074,    -0.392847479193551,
             0.392847479193551,    -0.693519922661074,     0.137949689641472,     0.587937801209680,    -0.587937801209679,    -0.137949689641471,     0.693519922661074,    -0.392847479193551,
            -0.392847479193551,     0.693519922661073,    -0.137949689641471,    -0.587937801209679,     0.587937801209679,     0.137949689641471,    -0.693519922661073,     0.392847479193550,
            -0.392847479193551,     0.693519922661073,    -0.137949689641471,    -0.587937801209679,     0.587937801209679,     0.137949689641471,    -0.693519922661074,     0.392847479193550,
             0.392847479193551,    -0.693519922661073,     0.137949689641471,     0.587937801209679,    -0.587937801209679,    -0.137949689641471,     0.693519922661073,    -0.392847479193550,
    },
        // (v, u)=(4,6)
        {
             0.270598050073099,    -0.653281482438188,     0.653281482438188,    -0.270598050073099,    -0.270598050073099,     0.653281482438188,    -0.653281482438188,     0.270598050073098,
            -0.270598050073099,     0.653281482438188,    -0.653281482438188,     0.270598050073099,     0.270598050073099,    -0.653281482438188,     0.653281482438188,    -0.270598050073098,
            -0.270598050073099,     0.653281482438189,    -0.653281482438188,     0.270598050073099,     0.270598050073099,    -0.653281482438188,     0.653281482438188,    -0.270598050073098,
             0.270598050073098,    -0.653281482438188,     0.653281482438188,    -0.270598050073099,    -0.270598050073099,     0.653281482438188,    -0.653281482438188,     0.270598050073098,
             0.270598050073099,    -0.653281482438189,     0.653281482438188,    -0.270598050073099,    -0.270598050073099,     0.653281482438188,    -0.653281482438188,     0.270598050073098,
            -0.270598050073098,     0.653281482438188,    -0.653281482438187,     0.270598050073098,     0.270598050073099,    -0.653281482438188,     0.653281482438187,    -0.270598050073098,
            -0.270598050073098,     0.653281482438188,    -0.653281482438188,     0.270598050073098,     0.270598050073099,    -0.653281482438188,     0.653281482438188,    -0.270598050073098,
             0.270598050073098,    -0.653281482438187,     0.653281482438187,    -0.270598050073098,    -0.270598050073099,     0.653281482438187,    -0.653281482438187,     0.270598050073098,
    },
        // (v, u)=(4,7)
        {
             0.137949689641472,    -0.392847479193551,     0.587937801209680,    -0.693519922661074,     0.693519922661074,    -0.587937801209679,     0.392847479193551,    -0.137949689641472,
            -0.137949689641472,     0.392847479193551,    -0.587937801209679,     0.693519922661074,    -0.693519922661074,     0.587937801209679,    -0.392847479193551,     0.137949689641472,
            -0.137949689641472,     0.392847479193551,    -0.587937801209680,     0.693519922661074,    -0.693519922661074,     0.587937801209679,    -0.392847479193551,     0.137949689641472,
             0.137949689641472,    -0.392847479193551,     0.587937801209679,    -0.693519922661074,     0.693519922661074,    -0.587937801209679,     0.392847479193551,    -0.137949689641472,
             0.137949689641472,    -0.392847479193551,     0.587937801209680,    -0.693519922661074,     0.693519922661074,    -0.587937801209679,     0.392847479193551,    -0.137949689641472,
            -0.137949689641471,     0.392847479193551,    -0.587937801209679,     0.693519922661073,    -0.693519922661073,     0.587937801209679,    -0.392847479193550,     0.137949689641472,
            -0.137949689641471,     0.392847479193551,    -0.587937801209679,     0.693519922661074,    -0.693519922661073,     0.587937801209679,    -0.392847479193550,     0.137949689641472,
             0.137949689641471,    -0.392847479193551,     0.587937801209679,    -0.693519922661073,     0.693519922661073,    -0.587937801209678,     0.392847479193550,    -0.137949689641472,
    },
    },
    {
        // (v, u)=(5,0)
        {
             0.555570233019602,     0.555570233019602,     0.555570233019602,     0.555570233019602,     0.555570233019602,     0.555570233019602,     0.555570233019602,     0.555570233019602,
            -0.980785280403230,    -0.980785280403230,    -0.980785280403230,    -0.980785280403230,    -0.980785280403230,    -0.980785280403230,    -0.980785280403230,    -0.980785280403230,
             0.195090322016128,     0.195090322016128,     0.195090322016128,     0.195090322016128,     0.195090322016128,     0.195090322016128,     0.195090322016128,     0.195090322016128,
             0.831469612302545,     0.831469612302545,     0.831469612302545,     0.831469612302545,     0.831469612302545,     0.831469612302545,     0.831469612302545,     0.831469612302545,
            -0.831469612302545,    -0.831469612302545,    -0.831469612302545,    -0.831469612302545,    -0.831469612302545,    -0.831469612302545,    -0.831469612302545,    -0.831469612302545,
            -0.195090322016128,    -0.195090322016128,    -0.195090322016128,    -0.195090322016128,    -0.195090322016128,    -0.195090322016128,    -0.195090322016128,    -0.195090322016128,
             0.980785280403231,     0.980785280403231,     0.980785280403231,     0.980785280403231,     0.980785280403231,     0.980785280403231,     0.980785280403231,     0.980785280403231,
            -0.555570233019602,    -0.555570233019602,    -0.555570233019602,    -0.555570233019602,    -0.555570233019602,    -0.555570233019602,    -0.555570233019602,    -0.555570233019602,
    },
        // (v, u)=(5,1)
        {
             0.544895106775819,     0.461939766255643,     0.308658283817455,     0.108386375662370,    -0.108386375662370,    -0.308658283817455,    -0.461939766255643,    -0.544895106775819,
            -0.961939766255643,    -0.815493156848917,    -0.544895106775819,    -0.191341716182545,     0.191341716182545,     0.544895106775818,     0.815493156848917,     0.961939766255643,
             0.191341716182545,     0.162211674410729,     0.108386375662370,     0.038060233744357,    -0.038060233744357,    -0.108386375662370,    -0.162211674410729,    -0.191341716182545,
             0.815493156848917,     0.691341716182545,     0.461939766255644,     0.162211674410729,    -0.162211674410729,    -0.461939766255643,    -0.691341716182545,    -0.815493156848917,
            -0.815493156848917,    -0.691341716182545,    -0.461939766255643,    -0.162211674410729,     0.162211674410729,     0.461939766255643,     0.691341716182545,     0.815493156848917,
            -0.191341716182545,    -0.162211674410729,    -0.108386375662369,    -0.038060233744357,     0.038060233744357,     0.108386375662369,     0.162211674410729,     0.191341716182545,
             0.961939766255644,     0.815493156848917,     0.544895106775819,     0.191341716182545,    -0.191341716182545,    -0.544895106775819,    -0.815493156848917,    -0.961939766255644,
            -0.544895106775818,    -0.461939766255643,    -0.308658283817455,    -0.108386375662370,     0.108386375662369,     0.308658283817455,     0.461939766255643,     0.544895106775818,
    },
        // (v, u)=(5,2)
        {
             0.513279967159337,     0.212607523691814,    -0.212607523691814,    -0.513279967159337,    -0.513279967159337,    -0.212607523691814,     0.212607523691814,     0.513279967159337,
            -0.906127446352888,    -0.375330277517865,     0.375330277517865,     0.906127446352888,     0.906127446352888,     0.375330277517866,    -0.375330277517865,    -0.906127446352888,
             0.180239955501737,     0.074657834050343,    -0.074657834050343,    -0.180239955501737,    -0.180239955501737,    -0.074657834050343,     0.074657834050343,     0.180239955501737,
             0.768177756711417,     0.318189645143209,    -0.318189645143209,    -0.768177756711417,    -0.768177756711417,    -0.318189645143209,     0.318189645143209,     0.768177756711416,
            -0.768177756711416,    -0.318189645143209,     0.318189645143208,     0.768177756711416,     0.768177756711416,     0.318189645143209,    -0.318189645143209,    -0.768177756711416,
            -0.180239955501737,    -0.074657834050343,     0.074657834050343,     0.180239955501737,     0.180239955501737,     0.074657834050343,    -0.074657834050343,    -0.180239955501737,
             0.906127446352888,     0.375330277517865,    -0.375330277517865,    -0.906127446352888,    -0.906127446352888,    -0.375330277517866,     0.375330277517866,     0.906127446352888,
            -0.513279967159336,    -0.212607523691814,     0.212607523691814,     0.513279967159336,     0.513279967159336,     0.212607523691814,    -0.212607523691814,    -0.513279967159336,
    },
        // (v, u)=(5,3)
        {
             0.461939766255643,    -0.108386375662370,    -0.544895106775819,    -0.308658283817455,     0.308658283817455,     0.544895106775819,     0.108386375662370,    -0.461939766255643,
            -0.815493156848917,     0.191341716182545,     0.961939766255643,     0.544895106775819,    -0.544895106775818,    -0.961939766255643,    -0.191341716182545,     0.815493156848917,
             0.162211674410729,    -0.038060233744357,    -0.191341716182545,    -0.108386375662370,     0.108386375662370,     0.191341716182545,     0.038060233744357,    -0.162211674410729,
             0.691341716182545,    -0.162211674410729,    -0.815493156848917,    -0.461939766255643,     0.461939766255643,     0.815493156848917,     0.162211674410729,    -0.691341716182545,
            -0.691341716182545,     0.162211674410729,     0.815493156848917,     0.461939766255643,    -0.461939766255643,    -0.815493156848917,    -0.162211674410729,     0.691341716182545,
            -0.162211674410729,     0.038060233744357,     0.191341716182545,     0.108386375662369,    -0.108386375662369,    -0.191341716182545,    -0.038060233744357,     0.162211674410729,
             0.815493156848917,    -0.191341716182545,    -0.961939766255644,    -0.544895106775819,     0.544895106775818,     0.961939766255644,     0.191341716182545,    -0.815493156848917,
            -0.461939766255643,     0.108386375662369,     0.544895106775818,     0.308658283817455,    -0.308658283817455,    -0.544895106775818,    -0.108386375662370,     0.461939766255643,
    },
        // (v, u)=(5,4)
        {
             0.392847479193551,    -0.392847479193551,    -0.392847479193551,     0.392847479193551,     0.392847479193551,    -0.392847479193551,    -0.392847479193551,     0.392847479193551,
            -0.693519922661074,     0.693519922661074,     0.693519922661074,    -0.693519922661074,    -0.693519922661074,     0.693519922661073,     0.693519922661073,    -0.693519922661073,
             0.137949689641472,    -0.137949689641472,    -0.137949689641472,     0.137949689641472,     0.137949689641472,    -0.137949689641471,    -0.137949689641471,     0.137949689641471,
             0.587937801209680,    -0.587937801209679,    -0.587937801209680,     0.587937801209679,     0.587937801209680,    -0.587937801209679,    -0.587937801209679,     0.587937801209679,
            -0.587937801209679,     0.587937801209679,     0.587937801209679,    -0.587937801209679,    -0.587937801209679,     0.587937801209679,     0.587937801209679,    -0.587937801209679,
            -0.137949689641471,     0.137949689641471,     0.137949689641471,    -0.137949689641471,    -0.137949689641471,     0.137949689641471,     0.137949689641471,    -0.137949689641471,
             0.693519922661074,    -0.693519922661074,    -0.693519922661074,     0.693519922661074,     0.693519922661074,    -0.693519922661073,    -0.693519922661074,     0.693519922661073,
            -0.392847479193551,     0.392847479193551,     0.392847479193551,    -0.392847479193551,    -0.392847479193551,     0.392847479193550,     0.392847479193550,    -0.392847479193550,
    },
        // (v, u)=(5,5)
        {
             0.308658283817455,    -0.544895106775819,     0.108386375662370,     0.461939766255644,    -0.461939766255643,    -0.108386375662369,     0.544895106775819,    -0.308658283817455,
            -0.544895106775819,     0.961939766255643,    -0.191341716182545,    -0.815493156848917,     0.815493156848917,     0.191341716182545,    -0.961939766255644,     0.544895106775818,
             0.108386375662370,    -0.191341716182545,     0.038060233744357,     0.162211674410729,    -0.162211674410729,    -0.038060233744357,     0.191341716182545,    -0.108386375662369,
             0.461939766255644,    -0.815493156848917,     0.162211674410729,     0.691341716182545,    -0.691341716182545,    -0.162211674410729,     0.815493156848918,    -0.461939766255643,
            -0.461939766255643,     0.815493156848917,    -0.162211674410729,    -0.691341716182545,     0.691341716182545,     0.162211674410729,    -0.815493156848917,     0.461939766255643,
            -0.108386375662369,     0.191341716182545,    -0.038060233744357,    -0.162211674410729,     0.162211674410729,     0.038060233744357,    -0.191341716182545,     0.108386375662369,
             0.544895106775819,    -0.961939766255644,     0.191341716182545,     0.815493156848918,    -0.815493156848917,    -0.191341716182545,     0.961939766255644,    -0.544895106775818,
            -0.308658283817455,     0.544895106775818,    -0.108386375662369,    -0.461939766255643,     0.461939766255643,     0.108386375662369,    -0.544895106775818,     0.308658283817454,
    },
        // (v, u)=(5,6)
        {
             0.212607523691814,    -0.513279967159337,     0.513279967159337,    -0.212607523691814,    -0.212607523691815,     0.513279967159337,    -0.513279967159337,     0.212607523691814,
            -0.375330277517865,     0.906127446352888,    -0.906127446352888,     0.375330277517865,     0.375330277517866,    -0.906127446352888,     0.906127446352887,    -0.375330277517865,
             0.074657834050343,    -0.180239955501737,     0.180239955501737,    -0.074657834050343,    -0.074657834050343,     0.180239955501737,    -0.180239955501737,     0.074657834050343,
             0.318189645143209,    -0.768177756711417,     0.768177756711416,    -0.318189645143209,    -0.318189645143209,     0.768177756711417,    -0.768177756711416,     0.318189645143208,
            -0.318189645143209,     0.768177756711416,    -0.768177756711416,     0.318189645143209,     0.318189645143209,    -0.768177756711416,     0.768177756711416,    -0.318189645143208,
            -0.074657834050343,     0.180239955501737,    -0.180239955501737,     0.074657834050343,     0.074657834050343,    -0.180239955501737,     0.180239955501737,    -0.074657834050342,
             0.375330277517865,    -0.906127446352888,     0.906127446352888,    -0.375330277517865,    -0.375330277517866,     0.906127446352888,    -0.906127446352888,     0.375330277517865,
            -0.212607523691814,     0.513279967159336,    -0.513279967159336,     0.212607523691814,     0.212607523691814,    -0.513279967159336,     0.513279967159336,    -0.212607523691814,
    },
        // (v, u)=(5,7)
        {
             0.108386375662370,    -0.308658283817455,     0.461939766255644,    -0.544895106775819,     0.544895106775819,    -0.461939766255643,     0.308658283817455,    -0.108386375662370,
            -0.191341716182545,     0.544895106775819,    -0.815493156848917,     0.961939766255644,    -0.961939766255643,     0.815493156848917,    -0.544895106775818,     0.191341716182545,
             0.038060233744357,    -0.108386375662370,     0.162211674410729,    -0.191341716182545,     0.191341716182545,    -0.162211674410729,     0.108386375662369,    -0.038060233744357,
             0.162211674410729,    -0.461939766255643,     0.691341716182545,    -0.815493156848918,     0.815493156848917,    -0.691341716182545,     0.461939766255643,    -0.162211674410729,
            -0.162211674410729,     0.461939766255643,    -0.691341716182545,     0.815493156848917,    -0.815493156848917,     0.691341716182545,    -0.461939766255643,     0.162211674410729,
            -0.038060233744357,     0.108386375662369,    -0.162211674410729,     0.191341716182545,    -0.191341716182545,     0.162211674410729,    -0.108386375662369,     0.038060233744357,
             0.191341716182545,    -0.544895106775819,     0.815493156848918,    -0.961939766255644,     0.961939766255644,    -0.815493156848917,     0.544895106775818,    -0.191341716182545,
            -0.108386375662370,     0.308658283817455,    -0.461939766255643,     0.544895106775818,    -0.544895106775818,     0.461939766255643,    -0.308658283817454,     0.108386375662370,
    },
    },
    {
        // (v, u)=(6,0)
        {
             0.382683432365090,     0.382683432365090,     0.382683432365090,     0.382683432365090,     0.382683432365090,     0.382683432365090,     0.382683432365090,     0.382683432365090,
            -0.923879532511287,    -0.923879532511287,    -0.923879532511287,    -0.923879532511287,    -0.923879532511287,    -0.923879532511287,    -0.923879532511287,    -0.923879532511287,
             0.923879532511287,     0.923879532511287,     0.923879532511287,     0.923879532511287,     0.923879532511287,     0.923879532511287,     0.923879532511287,     0.923879532511287,
            -0.382683432365090,    -0.382683432365090,    -0.382683432365090,    -0.382683432365090,    -0.382683432365090,    -0.382683432365090,    -0.382683432365090,    -0.382683432365090,
            -0.382683432365091,    -0.382683432365091,    -0.382683432365091,    -0.382683432365091,    -0.382683432365091,    -0.382683432365091,    -0.382683432365091,    -0.382683432365091,
             0.923879532511287,     0.923879532511287,     0.923879532511287,     0.923879532511287,     0.923879532511287,     0.923879532511287,     0.923879532511287,     0.923879532511287,
            -0.923879532511286,    -0.923879532511286,    -0.923879532511286,    -0.923879532511286,    -0.923879532511286,    -0.923879532511286,    -0.923879532511286,    -0.923879532511286,
             0.382683432365090,     0.382683432365090,     0.382683432365090,     0.382683432365090,     0.382683432365090,     0.382683432365090,     0.382683432365090,     0.382683432365090,
    },
        // (v, u)=(6,1)
        {
             0.375330277517865,     0.318189645143209,     0.212607523691814,     0.074657834050343,    -0.074657834050343,    -0.212607523691814,    -0.318189645143209,    -0.375330277517865,
            -0.906127446352888,    -0.768177756711416,    -0.513279967159337,    -0.180239955501737,     0.180239955501737,     0.513279967159337,     0.768177756711417,     0.906127446352888,
             0.906127446352888,     0.768177756711416,     0.513279967159337,     0.180239955501737,    -0.180239955501737,    -0.513279967159336,    -0.768177756711416,    -0.906127446352888,
            -0.375330277517865,    -0.318189645143209,    -0.212607523691814,    -0.074657834050343,     0.074657834050343,     0.212607523691814,     0.318189645143209,     0.375330277517865,
            -0.375330277517866,    -0.318189645143209,    -0.212607523691815,    -0.074657834050343,     0.074657834050343,     0.212607523691814,     0.318189645143209,     0.375330277517866,
             0.906127446352888,     0.768177756711416,     0.513279967159337,     0.180239955501737,    -0.180239955501737,    -0.513279967159337,    -0.768177756711416,    -0.906127446352888,
            -0.906127446352887,    -0.768177756711416,    -0.513279967159337,    -0.180239955501737,     0.180239955501737,     0.513279967159336,     0.768177756711416,     0.906127446352887,
             0.375330277517865,     0.318189645143208,     0.212607523691814,     0.074657834050343,    -0.074657834050343,    -0.212607523691814,    -0.318189645143208,    -0.375330277517865,
    },
        // (v, u)=(6,2)
        {
             0.353553390593274,     0.146446609406726,    -0.146446609406726,    -0.353553390593274,    -0.353553390593274,    -0.146446609406726,     0.146446609406726,     0.353553390593274,
            -0.853553390593274,    -0.353553390593274,     0.353553390593274,     0.853553390593274,     0.853553390593274,     0.353553390593274,    -0.353553390593274,    -0.853553390593274,
             0.853553390593274,     0.353553390593274,    -0.353553390593274,    -0.853553390593274,    -0.853553390593274,    -0.353553390593274,     0.353553390593274,     0.853553390593273,
            -0.353553390593274,    -0.146446609406726,     0.146446609406726,     0.353553390593274,     0.353553390593274,     0.146446609406726,    -0.146446609406726,    -0.353553390593274,
            -0.353553390593275,    -0.146446609406727,     0.146446609406727,     0.353553390593275,     0.353553390593275,     0.146446609406727,    -0.146446609406727,    -0.353553390593274,
             0.853553390593274,     0.353553390593274,    -0.353553390593274,    -0.853553390593274,    -0.853553390593274,    -0.353553390593274,     0.353553390593274,     0.853553390593274,
            -0.853553390593273,    -0.353553390593274,     0.353553390593274,     0.853553390593273,     0.853553390593274,     0.353553390593274,    -0.353553390593274,    -0.853553390593273,
             0.353553390593274,     0.146446609406726,    -0.146446609406726,    -0.353553390593274,    -0.353553390593274,    -0.146446609406726,     0.146446609406726,     0.353553390593273,
    },
        // (v, u)=(6,3)
        {
             0.318189645143209,    -0.074657834050343,    -0.375330277517865,    -0.212607523691814,     0.212607523691814,     0.375330277517865,     0.074657834050343,    -0.318189645143209,
            -0.768177756711416,     0.180239955501737,     0.906127446352888,     0.513279967159337,    -0.513279967159336,    -0.906127446352888,    -0.180239955501737,     0.768177756711416,
             0.768177756711416,    -0.180239955501737,    -0.906127446352888,    -0.513279967159337,     0.513279967159336,     0.906127446352888,     0.180239955501737,    -0.768177756711416,
            -0.318189645143209,     0.074657834050343,     0.375330277517865,     0.212607523691814,    -0.212607523691814,    -0.375330277517865,    -0.074657834050343,     0.318189645143209,
            -0.318189645143209,     0.074657834050343,     0.375330277517866,     0.212607523691815,    -0.212607523691814,    -0.375330277517866,    -0.074657834050343,     0.318189645143209,
             0.768177756711416,    -0.180239955501737,    -0.906127446352888,    -0.513279967159337,     0.513279967159336,     0.906127446352888,     0.180239955501737,    -0.768177756711416,
            -0.768177756711416,     0.180239955501737,     0.906127446352887,     0.513279967159337,    -0.513279967159336,    -0.906127446352887,    -0.180239955501737,     0.768177756711416,
             0.318189645143208,    -0.074657834050343,    -0.375330277517865,    -0.212607523691814,     0.212607523691814,     0.375330277517865,     0.074657834050343,    -0.318189645143208,
    },
        // (v, u)=(6,4)
        {
             0.270598050073099,    -0.270598050073099,    -0.270598050073099,     0.270598050073098,     0.270598050073099,    -0.270598050073098,    -0.270598050073098,     0.270598050073098,
            -0.653281482438188,     0.653281482438188,     0.653281482438189,    -0.653281482438188,    -0.653281482438189,     0.653281482438188,     0.653281482438188,    -0.653281482438187,
             0.653281482438188,    -0.653281482438188,    -0.653281482438188,     0.653281482438188,     0.653281482438188,    -0.653281482438187,    -0.653281482438188,     0.653281482438187,
            -0.270598050073099,     0.270598050073099,     0.270598050073099,    -0.270598050073099,    -0.270598050073099,     0.270598050073098,     0.270598050073098,    -0.270598050073098,
            -0.270598050073099,     0.270598050073099,     0.270598050073099,    -0.270598050073099,    -0.270598050073099,     0.270598050073099,     0.270598050073099,    -0.270598050073099,
             0.653281482438188,    -0.653281482438188,    -0.653281482438188,     0.653281482438188,     0.653281482438188,    -0.653281482438188,    -0.653281482438188,     0.653281482438187,
            -0.653281482438188,     0.653281482438188,     0.653281482438188,    -0.653281482438188,    -0.653281482438188,     0.653281482438187,     0.653281482438188,    -0.653281482438187,
             0.270598050073098,    -0.270598050073098,    -0.270598050073098,     0.270598050073098,     0.270598050073098,    -0.270598050073098,    -0.270598050073098,     0.270598050073098,
    },
        // (v, u)=(6,5)
        {
             0.212607523691814,    -0.375330277517865,     0.074657834050343,     0.318189645143209,    -0.318189645143209,    -0.074657834050343,     0.375330277517865,    -0.212607523691814,
            -0.513279967159337,     0.906127446352888,    -0.180239955501737,    -0.768177756711417,     0.768177756711416,     0.180239955501737,    -0.906127446352888,     0.513279967159336,
             0.513279967159337,    -0.906127446352888,     0.180239955501737,     0.768177756711416,    -0.768177756711416,    -0.180239955501737,     0.906127446352888,    -0.513279967159336,
            -0.212607523691814,     0.375330277517865,    -0.074657834050343,    -0.318189645143209,     0.318189645143209,     0.074657834050343,    -0.375330277517865,     0.212607523691814,
            -0.212607523691815,     0.375330277517866,    -0.074657834050343,    -0.318189645143209,     0.318189645143209,     0.074657834050343,    -0.375330277517866,     0.212607523691814,
             0.513279967159337,    -0.906127446352888,     0.180239955501737,     0.768177756711417,    -0.768177756711416,    -0.180239955501737,     0.906127446352888,    -0.513279967159336,
            -0.513279967159337,     0.906127446352887,    -0.180239955501737,    -0.768177756711416,     0.768177756711416,     0.180239955501737,    -0.906127446352888,     0.513279967159336,
             0.212607523691814,    -0.375330277517865,     0.074657834050343,     0.318189645143208,    -0.318189645143208,    -0.074657834050342,     0.375330277517865,    -0.212607523691814,
    },
        // (v, u)=(6,6)
        {
             0.146446609406726,    -0.353553390593274,     0.353553390593274,    -0.146446609406726,    -0.146446609406727,     0.353553390593274,    -0.353553390593274,     0.146446609406726,
            -0.353553390593274,     0.853553390593274,    -0.853553390593274,     0.353553390593274,     0.353553390593275,    -0.853553390593274,     0.853553390593274,    -0.353553390593274,
             0.353553390593274,    -0.853553390593274,     0.853553390593273,    -0.353553390593274,    -0.353553390593274,     0.853553390593274,    -0.853553390593273,     0.353553390593273,
            -0.146446609406726,     0.353553390593274,    -0.353553390593274,     0.146446609406726,     0.146446609406727,    -0.353553390593274,     0.353553390593274,    -0.146446609406726,
            -0.146446609406727,     0.353553390593275,    -0.353553390593274,     0.146446609406727,     0.146446609406727,    -0.353553390593275,     0.353553390593274,    -0.146446609406726,
             0.353553390593274,    -0.853553390593274,     0.853553390593274,    -0.353553390593274,    -0.353553390593275,     0.853553390593274,    -0.853553390593273,     0.353553390593274,
            -0.353553390593274,     0.853553390593274,    -0.853553390593273,     0.353553390593274,     0.353553390593274,    -0.853553390593273,     0.853553390593273,    -0.353553390593273,
             0.146446609406726,    -0.353553390593274,     0.353553390593273,    -0.146446609406726,    -0.146446609406726,     0.353553390593274,    -0.353553390593273,     0.146446609406726,
    },
        // (v, u)=(6,7)
        {
             0.074657834050343,    -0.212607523691814,     0.318189645143209,    -0.375330277517865,     0.375330277517865,    -0.318189645143208,     0.212607523691814,    -0.074657834050343,
            -0.180239955501737,     0.513279967159337,    -0.768177756711417,     0.906127446352888,    -0.906127446352888,     0.768177756711416,    -0.513279967159336,     0.180239955501737,
             0.180239955501737,    -0.513279967159337,     0.768177756711416,    -0.906127446352888,     0.906127446352888,    -0.768177756711416,     0.513279967159336,    -0.180239955501737,
            -0.074657834050343,     0.212607523691814,    -0.318189645143209,     0.375330277517865,    -0.375330277517865,     0.318189645143209,    -0.212607523691814,     0.074657834050343,
            -0.074657834050343,     0.212607523691815,    -0.318189645143209,     0.375330277517866,    -0.375330277517866,     0.318189645143209,    -0.212607523691814,     0.074657834050343,
             0.180239955501737,    -0.513279967159337,     0.768177756711417,    -0.906127446352888,     0.906127446352888,    -0.768177756711416,     0.513279967159336,    -0.180239955501737,
            -0.180239955501737,     0.513279967159337,    -0.768177756711416,     0.906127446352888,    -0.906127446352887,     0.768177756711416,    -0.513279967159336,     0.180239955501737,
             0.074657834050343,    -0.212607523691814,     0.318189645143208,    -0.375330277517865,     0.375330277517865,    -0.318189645143208,     0.212607523691814,    -0.074657834050343,
    },
    },
    {
        // (v, u)=(7,0)
        {
             0.195090322016128,     0.195090322016128,     0.195090322016128,     0.195090322016128,     0.195090322016128,     0.195090322016128,     0.195090322016128,     0.195090322016128,
            -0.555570233019602,    -0.555570233019602,    -0.555570233019602,    -0.555570233019602,    -0.555570233019602,    -0.555570233019602,    -0.555570233019602,    -0.555570233019602,
             0.831469612302545,     0.831469612302545,     0.831469612302545,     0.831469612302545,     0.831469612302545,     0.831469612302545,     0.831469612302545,     0.831469612302545,
            -0.980785280403231,    -0.980785280403231,    -0.980785280403231,    -0.980785280403231,    -0.980785280403231,    -0.980785280403231,    -0.980785280403231,    -0.980785280403231,
             0.980785280403230,     0.980785280403230,     0.980785280403230,     0.980785280403230,     0.980785280403230,     0.980785280403230,     0.980785280403230,     0.980785280403230,
            -0.831469612302545,    -0.831469612302545,    -0.831469612302545,    -0.831469612302545,    -0.831469612302545,    -0.831469612302545,    -0.831469612302545,    -0.831469612302545,
             0.555570233019602,     0.555570233019602,     0.555570233019602,     0.555570233019602,     0.555570233019602,     0.555570233019602,     0.555570233019602,     0.555570233019602,
            -0.195090322016129,    -0.195090322016129,    -0.195090322016129,    -0.195090322016129,    -0.195090322016129,    -0.195090322016129,    -0.195090322016129,    -0.195090322016129,
    },
        // (v, u)=(7,1)
        {
             0.191341716182545,     0.162211674410729,     0.108386375662370,     0.038060233744357,    -0.038060233744357,    -0.108386375662370,    -0.162211674410729,    -0.191341716182545,
            -0.544895106775819,    -0.461939766255643,    -0.308658283817455,    -0.108386375662370,     0.108386375662370,     0.308658283817455,     0.461939766255643,     0.544895106775819,
             0.815493156848917,     0.691341716182545,     0.461939766255644,     0.162211674410729,    -0.162211674410729,    -0.461939766255643,    -0.691341716182545,    -0.815493156848917,
            -0.961939766255644,    -0.815493156848917,    -0.544895106775819,    -0.191341716182545,     0.191341716182545,     0.544895106775819,     0.815493156848917,     0.961939766255644,
             0.961939766255643,     0.815493156848917,     0.544895106775819,     0.191341716182545,    -0.191341716182545,    -0.544895106775818,    -0.815493156848917,    -0.961939766255643,
            -0.815493156848917,    -0.691341716182545,    -0.461939766255643,    -0.162211674410729,     0.162211674410729,     0.461939766255643,     0.691341716182545,     0.815493156848917,
             0.544895106775818,     0.461939766255643,     0.308658283817455,     0.108386375662370,    -0.108386375662369,    -0.308658283817455,    -0.461939766255643,    -0.544895106775818,
            -0.191341716182545,    -0.162211674410729,    -0.108386375662370,    -0.038060233744357,     0.038060233744357,     0.108386375662370,     0.162211674410729,     0.191341716182545,
    },
        // (v, u)=(7,2)
        {
             0.180239955501737,     0.074657834050343,    -0.074657834050343,    -0.180239955501737,    -0.180239955501737,    -0.074657834050343,     0.074657834050343,     0.180239955501737,
            -0.513279967159337,    -0.212607523691814,     0.212607523691814,     0.513279967159337,     0.513279967159337,     0.212607523691814,    -0.212607523691814,    -0.513279967159337,
             0.768177756711417,     0.318189645143209,    -0.318189645143209,    -0.768177756711417,    -0.768177756711417,    -0.318189645143209,     0.318189645143209,     0.768177756711416,
            -0.906127446352888,    -0.375330277517865,     0.375330277517865,     0.906127446352888,     0.906127446352888,     0.375330277517866,    -0.375330277517866,    -0.906127446352888,
             0.906127446352888,     0.375330277517865,    -0.375330277517865,    -0.906127446352888,    -0.906127446352888,    -0.375330277517866,     0.375330277517865,     0.906127446352888,
            -0.768177756711416,    -0.318189645143208,     0.318189645143208,     0.768177756711416,     0.768177756711416,     0.318189645143209,    -0.318189645143209,    -0.768177756711416,
             0.513279967159336,     0.212607523691814,    -0.212607523691814,    -0.513279967159336,    -0.513279967159336,    -0.212607523691814,     0.212607523691814,     0.513279967159336,
            -0.180239955501737,    -0.074657834050343,     0.074657834050343,     0.180239955501737,     0.180239955501737,     0.074657834050343,    -0.074657834050343,    -0.180239955501737,
    },
        // (v, u)=(7,3)
        {
             0.162211674410729,    -0.038060233744357,    -0.191341716182545,    -0.108386375662370,     0.108386375662370,     0.191341716182545,     0.038060233744357,    -0.162211674410729,
            -0.461939766255643,     0.108386375662370,     0.544895106775819,     0.308658283817455,    -0.308658283817455,    -0.544895106775819,    -0.108386375662370,     0.461939766255643,
             0.691341716182545,    -0.162211674410729,    -0.815493156848917,    -0.461939766255643,     0.461939766255643,     0.815493156848917,     0.162211674410729,    -0.691341716182545,
            -0.815493156848917,     0.191341716182545,     0.961939766255644,     0.544895106775819,    -0.544895106775818,    -0.961939766255644,    -0.191341716182545,     0.815493156848917,
             0.815493156848917,    -0.191341716182545,    -0.961939766255643,    -0.544895106775819,     0.544895106775818,     0.961939766255643,     0.191341716182545,    -0.815493156848917,
            -0.691341716182545,     0.162211674410729,     0.815493156848917,     0.461939766255643,    -0.461939766255643,    -0.815493156848917,    -0.162211674410729,     0.691341716182545,
             0.461939766255643,    -0.108386375662369,    -0.544895106775818,    -0.308658283817455,     0.308658283817455,     0.544895106775818,     0.108386375662370,    -0.461939766255643,
            -0.162211674410729,     0.038060233744357,     0.191341716182545,     0.108386375662370,    -0.108386375662370,    -0.191341716182545,    -0.038060233744357,     0.162211674410729,
    },
        // (v, u)=(7,4)
        {
             0.137949689641472,    -0.137949689641472,    -0.137949689641472,     0.137949689641472,     0.137949689641472,    -0.137949689641471,    -0.137949689641471,     0.137949689641471,
            -0.392847479193551,     0.392847479193551,     0.392847479193551,    -0.392847479193551,    -0.392847479193551,     0.392847479193551,     0.392847479193551,    -0.392847479193551,
             0.587937801209680,    -0.587937801209679,    -0.587937801209680,     0.587937801209679,     0.587937801209680,    -0.587937801209679,    -0.587937801209679,     0.587937801209679,
            -0.693519922661074,     0.693519922661074,     0.693519922661074,    -0.693519922661074,    -0.693519922661074,     0.693519922661073,     0.693519922661074,    -0.693519922661073,
             0.693519922661074,    -0.693519922661074,    -0.693519922661074,     0.693519922661074,     0.693519922661074,    -0.693519922661073,    -0.693519922661073,     0.693519922661073,
            -0.587937801209679,     0.587937801209679,     0.587937801209679,    -0.587937801209679,    -0.587937801209679,     0.587937801209679,     0.587937801209679,    -0.587937801209678,
             0.392847479193551,    -0.392847479193551,    -0.392847479193551,     0.392847479193551,     0.392847479193551,    -0.392847479193550,    -0.392847479193550,     0.392847479193550,
            -0.137949689641472,     0.137949689641472,     0.137949689641472,    -0.137949689641472,    -0.137949689641472,     0.137949689641472,     0.137949689641472,    -0.137949689641472,
    },
        // (v, u)=(7,5)
        {
             0.108386375662370,    -0.191341716182545,     0.038060233744357,     0.162211674410729,    -0.162211674410729,    -0.038060233744357,     0.191341716182545,    -0.108386375662370,
            -0.308658283817455,     0.544895106775819,    -0.108386375662370,    -0.461939766255643,     0.461939766255643,     0.108386375662369,    -0.544895106775819,     0.308658283817455,
             0.461939766255644,    -0.815493156848917,     0.162211674410729,     0.691341716182545,    -0.691341716182545,    -0.162211674410729,     0.815493156848918,    -0.461939766255643,
            -0.544895106775819,     0.961939766255644,    -0.191341716182545,    -0.815493156848918,     0.815493156848917,     0.191341716182545,    -0.961939766255644,     0.544895106775818,
             0.544895106775819,    -0.961939766255643,     0.191341716182545,     0.815493156848917,    -0.815493156848917,    -0.191341716182545,     0.961939766255644,    -0.544895106775818,
            -0.461939766255643,     0.815493156848917,    -0.162211674410729,    -0.691341716182545,     0.691341716182545,     0.162211674410729,    -0.815493156848917,     0.461939766255643,
             0.308658283817455,    -0.544895106775818,     0.108386375662369,     0.461939766255643,    -0.461939766255643,    -0.108386375662369,     0.544895106775818,    -0.308658283817454,
            -0.108386375662370,     0.191341716182545,    -0.038060233744357,    -0.162211674410729,     0.162211674410729,     0.038060233744357,    -0.191341716182545,     0.108386375662370,
    },
        // (v, u)=(7,6)
        {
             0.074657834050343,    -0.180239955501737,     0.180239955501737,    -0.074657834050343,    -0.074657834050343,     0.180239955501737,    -0.180239955501737,     0.074657834050343,
            -0.212607523691814,     0.513279967159337,    -0.513279967159337,     0.212607523691814,     0.212607523691815,    -0.513279967159337,     0.513279967159337,    -0.212607523691814,
             0.318189645143209,    -0.768177756711417,     0.768177756711416,    -0.318189645143209,    -0.318189645143209,     0.768177756711417,    -0.768177756711416,     0.318189645143208,
            -0.375330277517865,     0.906127446352888,    -0.906127446352888,     0.375330277517865,     0.375330277517866,    -0.906127446352888,     0.906127446352888,    -0.375330277517865,
             0.375330277517865,    -0.906127446352888,     0.906127446352888,    -0.375330277517865,    -0.375330277517866,     0.906127446352888,    -0.906127446352887,     0.375330277517865,
            -0.318189645143208,     0.768177756711416,    -0.768177756711416,     0.318189645143209,     0.318189645143209,    -0.768177756711416,     0.768177756711416,    -0.318189645143208,
             0.212607523691814,    -0.513279967159336,     0.513279967159336,    -0.212607523691814,    -0.212607523691814,     0.513279967159336,    -0.513279967159336,     0.212607523691814,
