//                    [x][f]
const f32 IDCT_Weights[8][8] = {
   // (x)=(0)
    {
        1.00000000000000000000000000000000, 0.98078528040323043057924223830923, 0.92387953251128673848313610506011, 0.83146961230254523567140267914510, 0.70710678118654757273731092936941, 0.55557023301960228867102387084742, 0.38268343236508983729038391174981, 0.19509032201612833135051516819658, 
    },
   // (x)=(1)
    {
        1.00000000000000000000000000000000, 0.83146961230254523567140267914510, 0.38268343236508983729038391174981, -0.19509032201612819257263709005201, -0.70710678118654746171500846685376, -0.98078528040323043057924223830923, -0.92387953251128684950543856757577, -0.55557023301960217764872140833177, 
    },
   // (x)=(2)
    {
        1.00000000000000000000000000000000, 0.55557023301960228867102387084742, -0.38268343236508972626808144923416, -0.98078528040323043057924223830923, -0.70710678118654768375961339188507, 0.19509032201612830359493955256767, 0.92387953251128651643853118002880, 0.83146961230254545771600760417641, 
    },
   // (x)=(3)
    {
        1.00000000000000000000000000000000, 0.19509032201612833135051516819658, -0.92387953251128673848313610506011, -0.55557023301960217764872140833177, 0.70710678118654735069270600433811, 0.83146961230254545771600760417641, -0.38268343236508989280153514300764, -0.98078528040323065262384716334054, 
    },
   // (x)=(4)
    {
        1.00000000000000000000000000000000, -0.19509032201612819257263709005201, -0.92387953251128684950543856757577, 0.55557023301960184458181402078480, 0.70710678118654768375961339188507, -0.83146961230254512464910021662945, -0.38268343236509055893534991810156, 0.98078528040323043057924223830923, 
    },
   // (x)=(5)
    {
        1.00000000000000000000000000000000, -0.55557023301960195560411648330046, -0.38268343236509033689074499307026, 0.98078528040323043057924223830923, -0.70710678118654668455889122924418, -0.19509032201612802603918339627853, 0.92387953251128673848313610506011, -0.83146961230254501362679775411380, 
    },
   // (x)=(6)
    {
        1.00000000000000000000000000000000, -0.83146961230254534669370514166076, 0.38268343236509000382383760552329, 0.19509032201612877543972501825920, -0.70710678118654712864810107930680, 0.98078528040323065262384716334054, -0.92387953251128640541622871751315, 0.55557023301960151151490663323784, 
    },
   // (x)=(7)
    {
        1.00000000000000000000000000000000, -0.98078528040323043057924223830923, 0.92387953251128651643853118002880, -0.83146961230254512464910021662945, 0.70710678118654657353658876672853, -0.55557023301960151151490663323784, 0.38268343236508955973462775546068, -0.19509032201612858115069570885680, 
    },
};
