//                    [x][f]
const f32 IDCT_Weights[8][8] = {
   // (x)=(0)
    {
        0.35355339055000001291517719437252, 0.49039264020161521528962111915462, 0.46193976625564336924156805253006, 0.41573480615127261783570133957255, 0.35355339059327378636865546468471, 0.27778511650980114433551193542371, 0.19134171618254491864519195587491, 0.09754516100806416567525758409829, 
    },
   // (x)=(1)
    {
        0.35355339055000001291517719437252, 0.41573480615127261783570133957255, 0.19134171618254491864519195587491, -0.09754516100806409628631854502601, -0.35355339059327373085750423342688, -0.49039264020161521528962111915462, -0.46193976625564342475271928378788, -0.27778511650980108882436070416588, 
    },
   // (x)=(2)
    {
        0.35355339055000001291517719437252, 0.27778511650980114433551193542371, -0.19134171618254486313404072461708, -0.49039264020161521528962111915462, -0.35355339059327384187980669594253, 0.09754516100806415179746977628383, 0.46193976625564325821926559001440, 0.41573480615127272885800380208821, 
    },
   // (x)=(3)
    {
        0.35355339055000001291517719437252, 0.09754516100806416567525758409829, -0.46193976625564336924156805253006, -0.27778511650980108882436070416588, 0.35355339059327367534635300216905, 0.41573480615127272885800380208821, -0.19134171618254494640076757150382, -0.49039264020161532631192358167027, 
    },
   // (x)=(4)
    {
        0.35355339055000001291517719437252, -0.09754516100806409628631854502601, -0.46193976625564342475271928378788, 0.27778511650980092229090701039240, 0.35355339059327384187980669594253, -0.41573480615127256232455010831472, -0.19134171618254527946767495905078, 0.49039264020161521528962111915462, 
    },
   // (x)=(5)
    {
        0.35355339055000001291517719437252, -0.27778511650980097780205824165023, -0.19134171618254516844537249653513, 0.49039264020161521528962111915462, -0.35355339059327334227944561462209, -0.09754516100806401301959169813927, 0.46193976625564336924156805253006, -0.41573480615127250681339887705690, 
    },
   // (x)=(6)
    {
        0.35355339055000001291517719437252, -0.41573480615127267334685257083038, 0.19134171618254500191191880276165, 0.09754516100806438771986250912960, -0.35355339059327356432405053965340, 0.49039264020161532631192358167027, -0.46193976625564320270811435875657, 0.27778511650980075575745331661892, 
    },
   // (x)=(7)
    {
        0.35355339055000001291517719437252, -0.49039264020161521528962111915462, 0.46193976625564325821926559001440, -0.41573480615127256232455010831472, 0.35355339059327328676829438336426, -0.27778511650980075575745331661892, 0.19134171618254477986731387773034, -0.09754516100806429057534785442840, 
    },
};
