//      [v][u][x+y*8]
const f32 IDCT_Weights[8][8][64] = {
    {
        // (v, u)=(0,0)
        {
             1.00000000000000000000000000000000,     1.00000000000000000000000000000000,     1.00000000000000000000000000000000,     1.00000000000000000000000000000000,     1.00000000000000000000000000000000,     1.00000000000000000000000000000000,     1.00000000000000000000000000000000,     1.00000000000000000000000000000000,
             1.00000000000000000000000000000000,     1.00000000000000000000000000000000,     1.00000000000000000000000000000000,     1.00000000000000000000000000000000,     1.00000000000000000000000000000000,     1.00000000000000000000000000000000,     1.00000000000000000000000000000000,     1.00000000000000000000000000000000,
             1.00000000000000000000000000000000,     1.00000000000000000000000000000000,     1.00000000000000000000000000000000,     1.00000000000000000000000000000000,     1.00000000000000000000000000000000,     1.00000000000000000000000000000000,     1.00000000000000000000000000000000,     1.00000000000000000000000000000000,
             1.00000000000000000000000000000000,     1.00000000000000000000000000000000,     1.00000000000000000000000000000000,     1.00000000000000000000000000000000,     1.00000000000000000000000000000000,     1.00000000000000000000000000000000,     1.00000000000000000000000000000000,     1.00000000000000000000000000000000,
             1.00000000000000000000000000000000,     1.00000000000000000000000000000000,     1.00000000000000000000000000000000,     1.00000000000000000000000000000000,     1.00000000000000000000000000000000,     1.00000000000000000000000000000000,     1.00000000000000000000000000000000,     1.00000000000000000000000000000000,
             1.00000000000000000000000000000000,     1.00000000000000000000000000000000,     1.00000000000000000000000000000000,     1.00000000000000000000000000000000,     1.00000000000000000000000000000000,     1.00000000000000000000000000000000,     1.00000000000000000000000000000000,     1.00000000000000000000000000000000,
             1.00000000000000000000000000000000,     1.00000000000000000000000000000000,     1.00000000000000000000000000000000,     1.00000000000000000000000000000000,     1.00000000000000000000000000000000,     1.00000000000000000000000000000000,     1.00000000000000000000000000000000,     1.00000000000000000000000000000000,
             1.00000000000000000000000000000000,     1.00000000000000000000000000000000,     1.00000000000000000000000000000000,     1.00000000000000000000000000000000,     1.00000000000000000000000000000000,     1.00000000000000000000000000000000,     1.00000000000000000000000000000000,     1.00000000000000000000000000000000,
    },
        // (v, u)=(0,1)
        {
             0.98078528040323043057924223830923,     0.83146961230254523567140267914510,     0.55557023301960228867102387084742,     0.19509032201612833135051516819658,    -0.19509032201612819257263709005201,    -0.55557023301960195560411648330046,    -0.83146961230254534669370514166076,    -0.98078528040323043057924223830923,
             0.98078528040323043057924223830923,     0.83146961230254523567140267914510,     0.55557023301960228867102387084742,     0.19509032201612833135051516819658,    -0.19509032201612819257263709005201,    -0.55557023301960195560411648330046,    -0.83146961230254534669370514166076,    -0.98078528040323043057924223830923,
             0.98078528040323043057924223830923,     0.83146961230254523567140267914510,     0.55557023301960228867102387084742,     0.19509032201612833135051516819658,    -0.19509032201612819257263709005201,    -0.55557023301960195560411648330046,    -0.83146961230254534669370514166076,    -0.98078528040323043057924223830923,
             0.98078528040323043057924223830923,     0.83146961230254523567140267914510,     0.55557023301960228867102387084742,     0.19509032201612833135051516819658,    -0.19509032201612819257263709005201,    -0.55557023301960195560411648330046,    -0.83146961230254534669370514166076,    -0.98078528040323043057924223830923,
             0.98078528040323043057924223830923,     0.83146961230254523567140267914510,     0.55557023301960228867102387084742,     0.19509032201612833135051516819658,    -0.19509032201612819257263709005201,    -0.55557023301960195560411648330046,    -0.83146961230254534669370514166076,    -0.98078528040323043057924223830923,
             0.98078528040323043057924223830923,     0.83146961230254523567140267914510,     0.55557023301960228867102387084742,     0.19509032201612833135051516819658,    -0.19509032201612819257263709005201,    -0.55557023301960195560411648330046,    -0.83146961230254534669370514166076,    -0.98078528040323043057924223830923,
             0.98078528040323043057924223830923,     0.83146961230254523567140267914510,     0.55557023301960228867102387084742,     0.19509032201612833135051516819658,    -0.19509032201612819257263709005201,    -0.55557023301960195560411648330046,    -0.83146961230254534669370514166076,    -0.98078528040323043057924223830923,
             0.98078528040323043057924223830923,     0.83146961230254523567140267914510,     0.55557023301960228867102387084742,     0.19509032201612833135051516819658,    -0.19509032201612819257263709005201,    -0.55557023301960195560411648330046,    -0.83146961230254534669370514166076,    -0.98078528040323043057924223830923,
    },
        // (v, u)=(0,2)
        {
             0.92387953251128673848313610506011,     0.38268343236508983729038391174981,    -0.38268343236508972626808144923416,    -0.92387953251128673848313610506011,    -0.92387953251128684950543856757577,    -0.38268343236509033689074499307026,     0.38268343236509000382383760552329,     0.92387953251128651643853118002880,
             0.92387953251128673848313610506011,     0.38268343236508983729038391174981,    -0.38268343236508972626808144923416,    -0.92387953251128673848313610506011,    -0.92387953251128684950543856757577,    -0.38268343236509033689074499307026,     0.38268343236509000382383760552329,     0.92387953251128651643853118002880,
             0.92387953251128673848313610506011,     0.38268343236508983729038391174981,    -0.38268343236508972626808144923416,    -0.92387953251128673848313610506011,    -0.92387953251128684950543856757577,    -0.38268343236509033689074499307026,     0.38268343236509000382383760552329,     0.92387953251128651643853118002880,
             0.92387953251128673848313610506011,     0.38268343236508983729038391174981,    -0.38268343236508972626808144923416,    -0.92387953251128673848313610506011,    -0.92387953251128684950543856757577,    -0.38268343236509033689074499307026,     0.38268343236509000382383760552329,     0.92387953251128651643853118002880,
             0.92387953251128673848313610506011,     0.38268343236508983729038391174981,    -0.38268343236508972626808144923416,    -0.92387953251128673848313610506011,    -0.92387953251128684950543856757577,    -0.38268343236509033689074499307026,     0.38268343236509000382383760552329,     0.92387953251128651643853118002880,
             0.92387953251128673848313610506011,     0.38268343236508983729038391174981,    -0.38268343236508972626808144923416,    -0.92387953251128673848313610506011,    -0.92387953251128684950543856757577,    -0.38268343236509033689074499307026,     0.38268343236509000382383760552329,     0.92387953251128651643853118002880,
             0.92387953251128673848313610506011,     0.38268343236508983729038391174981,    -0.38268343236508972626808144923416,    -0.92387953251128673848313610506011,    -0.92387953251128684950543856757577,    -0.38268343236509033689074499307026,     0.38268343236509000382383760552329,     0.92387953251128651643853118002880,
             0.92387953251128673848313610506011,     0.38268343236508983729038391174981,    -0.38268343236508972626808144923416,    -0.92387953251128673848313610506011,    -0.92387953251128684950543856757577,    -0.38268343236509033689074499307026,     0.38268343236509000382383760552329,     0.92387953251128651643853118002880,
    },
        // (v, u)=(0,3)
        {
             0.83146961230254523567140267914510,    -0.19509032201612819257263709005201,    -0.98078528040323043057924223830923,    -0.55557023301960217764872140833177,     0.55557023301960184458181402078480,     0.98078528040323043057924223830923,     0.19509032201612877543972501825920,    -0.83146961230254512464910021662945,
             0.83146961230254523567140267914510,    -0.19509032201612819257263709005201,    -0.98078528040323043057924223830923,    -0.55557023301960217764872140833177,     0.55557023301960184458181402078480,     0.98078528040323043057924223830923,     0.19509032201612877543972501825920,    -0.83146961230254512464910021662945,
             0.83146961230254523567140267914510,    -0.19509032201612819257263709005201,    -0.98078528040323043057924223830923,    -0.55557023301960217764872140833177,     0.55557023301960184458181402078480,     0.98078528040323043057924223830923,     0.19509032201612877543972501825920,    -0.83146961230254512464910021662945,
             0.83146961230254523567140267914510,    -0.19509032201612819257263709005201,    -0.98078528040323043057924223830923,    -0.55557023301960217764872140833177,     0.55557023301960184458181402078480,     0.98078528040323043057924223830923,     0.19509032201612877543972501825920,    -0.83146961230254512464910021662945,
             0.83146961230254523567140267914510,    -0.19509032201612819257263709005201,    -0.98078528040323043057924223830923,    -0.55557023301960217764872140833177,     0.55557023301960184458181402078480,     0.98078528040323043057924223830923,     0.19509032201612877543972501825920,    -0.83146961230254512464910021662945,
             0.83146961230254523567140267914510,    -0.19509032201612819257263709005201,    -0.98078528040323043057924223830923,    -0.55557023301960217764872140833177,     0.55557023301960184458181402078480,     0.98078528040323043057924223830923,     0.19509032201612877543972501825920,    -0.83146961230254512464910021662945,
             0.83146961230254523567140267914510,    -0.19509032201612819257263709005201,    -0.98078528040323043057924223830923,    -0.55557023301960217764872140833177,     0.55557023301960184458181402078480,     0.98078528040323043057924223830923,     0.19509032201612877543972501825920,    -0.83146961230254512464910021662945,
             0.83146961230254523567140267914510,    -0.19509032201612819257263709005201,    -0.98078528040323043057924223830923,    -0.55557023301960217764872140833177,     0.55557023301960184458181402078480,     0.98078528040323043057924223830923,     0.19509032201612877543972501825920,    -0.83146961230254512464910021662945,
    },
        // (v, u)=(0,4)
        {
             0.70710678118654757273731092936941,    -0.70710678118654746171500846685376,    -0.70710678118654768375961339188507,     0.70710678118654735069270600433811,     0.70710678118654768375961339188507,    -0.70710678118654668455889122924418,    -0.70710678118654712864810107930680,     0.70710678118654657353658876672853,
             0.70710678118654757273731092936941,    -0.70710678118654746171500846685376,    -0.70710678118654768375961339188507,     0.70710678118654735069270600433811,     0.70710678118654768375961339188507,    -0.70710678118654668455889122924418,    -0.70710678118654712864810107930680,     0.70710678118654657353658876672853,
             0.70710678118654757273731092936941,    -0.70710678118654746171500846685376,    -0.70710678118654768375961339188507,     0.70710678118654735069270600433811,     0.70710678118654768375961339188507,    -0.70710678118654668455889122924418,    -0.70710678118654712864810107930680,     0.70710678118654657353658876672853,
             0.70710678118654757273731092936941,    -0.70710678118654746171500846685376,    -0.70710678118654768375961339188507,     0.70710678118654735069270600433811,     0.70710678118654768375961339188507,    -0.70710678118654668455889122924418,    -0.70710678118654712864810107930680,     0.70710678118654657353658876672853,
             0.70710678118654757273731092936941,    -0.70710678118654746171500846685376,    -0.70710678118654768375961339188507,     0.70710678118654735069270600433811,     0.70710678118654768375961339188507,    -0.70710678118654668455889122924418,    -0.70710678118654712864810107930680,     0.70710678118654657353658876672853,
             0.70710678118654757273731092936941,    -0.70710678118654746171500846685376,    -0.70710678118654768375961339188507,     0.70710678118654735069270600433811,     0.70710678118654768375961339188507,    -0.70710678118654668455889122924418,    -0.70710678118654712864810107930680,     0.70710678118654657353658876672853,
             0.70710678118654757273731092936941,    -0.70710678118654746171500846685376,    -0.70710678118654768375961339188507,     0.70710678118654735069270600433811,     0.70710678118654768375961339188507,    -0.70710678118654668455889122924418,    -0.70710678118654712864810107930680,     0.70710678118654657353658876672853,
             0.70710678118654757273731092936941,    -0.70710678118654746171500846685376,    -0.70710678118654768375961339188507,     0.70710678118654735069270600433811,     0.70710678118654768375961339188507,    -0.70710678118654668455889122924418,    -0.70710678118654712864810107930680,     0.70710678118654657353658876672853,
    },
        // (v, u)=(0,5)
        {
             0.55557023301960228867102387084742,    -0.98078528040323043057924223830923,     0.19509032201612830359493955256767,     0.83146961230254545771600760417641,    -0.83146961230254512464910021662945,    -0.19509032201612802603918339627853,     0.98078528040323065262384716334054,    -0.55557023301960151151490663323784,
             0.55557023301960228867102387084742,    -0.98078528040323043057924223830923,     0.19509032201612830359493955256767,     0.83146961230254545771600760417641,    -0.83146961230254512464910021662945,    -0.19509032201612802603918339627853,     0.98078528040323065262384716334054,    -0.55557023301960151151490663323784,
             0.55557023301960228867102387084742,    -0.98078528040323043057924223830923,     0.19509032201612830359493955256767,     0.83146961230254545771600760417641,    -0.83146961230254512464910021662945,    -0.19509032201612802603918339627853,     0.98078528040323065262384716334054,    -0.55557023301960151151490663323784,
             0.55557023301960228867102387084742,    -0.98078528040323043057924223830923,     0.19509032201612830359493955256767,     0.83146961230254545771600760417641,    -0.83146961230254512464910021662945,    -0.19509032201612802603918339627853,     0.98078528040323065262384716334054,    -0.55557023301960151151490663323784,
             0.55557023301960228867102387084742,    -0.98078528040323043057924223830923,     0.19509032201612830359493955256767,     0.83146961230254545771600760417641,    -0.83146961230254512464910021662945,    -0.19509032201612802603918339627853,     0.98078528040323065262384716334054,    -0.55557023301960151151490663323784,
             0.55557023301960228867102387084742,    -0.98078528040323043057924223830923,     0.19509032201612830359493955256767,     0.83146961230254545771600760417641,    -0.83146961230254512464910021662945,    -0.19509032201612802603918339627853,     0.98078528040323065262384716334054,    -0.55557023301960151151490663323784,
             0.55557023301960228867102387084742,    -0.98078528040323043057924223830923,     0.19509032201612830359493955256767,     0.83146961230254545771600760417641,    -0.83146961230254512464910021662945,    -0.19509032201612802603918339627853,     0.98078528040323065262384716334054,    -0.55557023301960151151490663323784,
             0.55557023301960228867102387084742,    -0.98078528040323043057924223830923,     0.19509032201612830359493955256767,     0.83146961230254545771600760417641,    -0.83146961230254512464910021662945,    -0.19509032201612802603918339627853,     0.98078528040323065262384716334054,    -0.55557023301960151151490663323784,
    },
        // (v, u)=(0,6)
        {
             0.38268343236508983729038391174981,    -0.92387953251128684950543856757577,     0.92387953251128651643853118002880,    -0.38268343236508989280153514300764,    -0.38268343236509055893534991810156,     0.92387953251128673848313610506011,    -0.92387953251128640541622871751315,     0.38268343236508955973462775546068,
             0.38268343236508983729038391174981,    -0.92387953251128684950543856757577,     0.92387953251128651643853118002880,    -0.38268343236508989280153514300764,    -0.38268343236509055893534991810156,     0.92387953251128673848313610506011,    -0.92387953251128640541622871751315,     0.38268343236508955973462775546068,
             0.38268343236508983729038391174981,    -0.92387953251128684950543856757577,     0.92387953251128651643853118002880,    -0.38268343236508989280153514300764,    -0.38268343236509055893534991810156,     0.92387953251128673848313610506011,    -0.92387953251128640541622871751315,     0.38268343236508955973462775546068,
             0.38268343236508983729038391174981,    -0.92387953251128684950543856757577,     0.92387953251128651643853118002880,    -0.38268343236508989280153514300764,    -0.38268343236509055893534991810156,     0.92387953251128673848313610506011,    -0.92387953251128640541622871751315,     0.38268343236508955973462775546068,
             0.38268343236508983729038391174981,    -0.92387953251128684950543856757577,     0.92387953251128651643853118002880,    -0.38268343236508989280153514300764,    -0.38268343236509055893534991810156,     0.92387953251128673848313610506011,    -0.92387953251128640541622871751315,     0.38268343236508955973462775546068,
             0.38268343236508983729038391174981,    -0.92387953251128684950543856757577,     0.92387953251128651643853118002880,    -0.38268343236508989280153514300764,    -0.38268343236509055893534991810156,     0.92387953251128673848313610506011,    -0.92387953251128640541622871751315,     0.38268343236508955973462775546068,
             0.38268343236508983729038391174981,    -0.92387953251128684950543856757577,     0.92387953251128651643853118002880,    -0.38268343236508989280153514300764,    -0.38268343236509055893534991810156,     0.92387953251128673848313610506011,    -0.92387953251128640541622871751315,     0.38268343236508955973462775546068,
             0.38268343236508983729038391174981,    -0.92387953251128684950543856757577,     0.92387953251128651643853118002880,    -0.38268343236508989280153514300764,    -0.38268343236509055893534991810156,     0.92387953251128673848313610506011,    -0.92387953251128640541622871751315,     0.38268343236508955973462775546068,
    },
        // (v, u)=(0,7)
        {
             0.19509032201612833135051516819658,    -0.55557023301960217764872140833177,     0.83146961230254545771600760417641,    -0.98078528040323065262384716334054,     0.98078528040323043057924223830923,    -0.83146961230254501362679775411380,     0.55557023301960151151490663323784,    -0.19509032201612858115069570885680,
             0.19509032201612833135051516819658,    -0.55557023301960217764872140833177,     0.83146961230254545771600760417641,    -0.98078528040323065262384716334054,     0.98078528040323043057924223830923,    -0.83146961230254501362679775411380,     0.55557023301960151151490663323784,    -0.19509032201612858115069570885680,
             0.19509032201612833135051516819658,    -0.55557023301960217764872140833177,     0.83146961230254545771600760417641,    -0.98078528040323065262384716334054,     0.98078528040323043057924223830923,    -0.83146961230254501362679775411380,     0.55557023301960151151490663323784,    -0.19509032201612858115069570885680,
             0.19509032201612833135051516819658,    -0.55557023301960217764872140833177,     0.83146961230254545771600760417641,    -0.98078528040323065262384716334054,     0.98078528040323043057924223830923,    -0.83146961230254501362679775411380,     0.55557023301960151151490663323784,    -0.19509032201612858115069570885680,
             0.19509032201612833135051516819658,    -0.55557023301960217764872140833177,     0.83146961230254545771600760417641,    -0.98078528040323065262384716334054,     0.98078528040323043057924223830923,    -0.83146961230254501362679775411380,     0.55557023301960151151490663323784,    -0.19509032201612858115069570885680,
             0.19509032201612833135051516819658,    -0.55557023301960217764872140833177,     0.83146961230254545771600760417641,    -0.98078528040323065262384716334054,     0.98078528040323043057924223830923,    -0.83146961230254501362679775411380,     0.55557023301960151151490663323784,    -0.19509032201612858115069570885680,
             0.19509032201612833135051516819658,    -0.55557023301960217764872140833177,     0.83146961230254545771600760417641,    -0.98078528040323065262384716334054,     0.98078528040323043057924223830923,    -0.83146961230254501362679775411380,     0.55557023301960151151490663323784,    -0.19509032201612858115069570885680,
             0.19509032201612833135051516819658,    -0.55557023301960217764872140833177,     0.83146961230254545771600760417641,    -0.98078528040323065262384716334054,     0.98078528040323043057924223830923,    -0.83146961230254501362679775411380,     0.55557023301960151151490663323784,    -0.19509032201612858115069570885680,
    },
    },
    {
        // (v, u)=(1,0)
        {
             0.98078528040323043057924223830923,     0.98078528040323043057924223830923,     0.98078528040323043057924223830923,     0.98078528040323043057924223830923,     0.98078528040323043057924223830923,     0.98078528040323043057924223830923,     0.98078528040323043057924223830923,     0.98078528040323043057924223830923,
             0.83146961230254523567140267914510,     0.83146961230254523567140267914510,     0.83146961230254523567140267914510,     0.83146961230254523567140267914510,     0.83146961230254523567140267914510,     0.83146961230254523567140267914510,     0.83146961230254523567140267914510,     0.83146961230254523567140267914510,
             0.55557023301960228867102387084742,     0.55557023301960228867102387084742,     0.55557023301960228867102387084742,     0.55557023301960228867102387084742,     0.55557023301960228867102387084742,     0.55557023301960228867102387084742,     0.55557023301960228867102387084742,     0.55557023301960228867102387084742,
             0.19509032201612833135051516819658,     0.19509032201612833135051516819658,     0.19509032201612833135051516819658,     0.19509032201612833135051516819658,     0.19509032201612833135051516819658,     0.19509032201612833135051516819658,     0.19509032201612833135051516819658,     0.19509032201612833135051516819658,
            -0.19509032201612819257263709005201,    -0.19509032201612819257263709005201,    -0.19509032201612819257263709005201,    -0.19509032201612819257263709005201,    -0.19509032201612819257263709005201,    -0.19509032201612819257263709005201,    -0.19509032201612819257263709005201,    -0.19509032201612819257263709005201,
            -0.55557023301960195560411648330046,    -0.55557023301960195560411648330046,    -0.55557023301960195560411648330046,    -0.55557023301960195560411648330046,    -0.55557023301960195560411648330046,    -0.55557023301960195560411648330046,    -0.55557023301960195560411648330046,    -0.55557023301960195560411648330046,
            -0.83146961230254534669370514166076,    -0.83146961230254534669370514166076,    -0.83146961230254534669370514166076,    -0.83146961230254534669370514166076,    -0.83146961230254534669370514166076,    -0.83146961230254534669370514166076,    -0.83146961230254534669370514166076,    -0.83146961230254534669370514166076,
            -0.98078528040323043057924223830923,    -0.98078528040323043057924223830923,    -0.98078528040323043057924223830923,    -0.98078528040323043057924223830923,    -0.98078528040323043057924223830923,    -0.98078528040323043057924223830923,    -0.98078528040323043057924223830923,    -0.98078528040323043057924223830923,
    },
        // (v, u)=(1,1)
        {
             0.96193976625564336924156805253006,     0.81549315684891710009907228595694,     0.54489510677581864950269618930179,     0.19134171618254494640076757150382,    -0.19134171618254480762288949335925,    -0.54489510677581842745809126427048,    -0.81549315684891721112137474847259,    -0.96193976625564336924156805253006,
             0.81549315684891710009907228595694,     0.69134171618254491864519195587491,     0.46193976625564342475271928378788,     0.16221167441072892323461474006763,    -0.16221167441072881221231227755197,    -0.46193976625564314719696312749875,    -0.69134171618254502966749441839056,    -0.81549315684891710009907228595694,
             0.54489510677581864950269618930179,     0.46193976625564342475271928378788,     0.30865828381745519237711050664075,     0.10838637566236966613963943473209,    -0.10838637566236958287291258784535,    -0.30865828381745502584365681286727,    -0.46193976625564348026387051504571,    -0.54489510677581864950269618930179,
             0.19134171618254494640076757150382,     0.16221167441072892323461474006763,     0.10838637566236966613963943473209,     0.03806023374435664463621975528440,    -0.03806023374435661688064413965549,    -0.10838637566236959675070039565981,    -0.16221167441072895099019035569654,    -0.19134171618254494640076757150382,
            -0.19134171618254480762288949335925,    -0.16221167441072881221231227755197,    -0.10838637566236958287291258784535,    -0.03806023374435661688064413965549,     0.03806023374435658912506852402657,     0.10838637566236952736176135658752,     0.16221167441072883996788789318089,     0.19134171618254480762288949335925,
            -0.54489510677581842745809126427048,    -0.46193976625564314719696312749875,    -0.30865828381745502584365681286727,    -0.10838637566236959675070039565981,     0.10838637566236952736176135658752,     0.30865828381745480379905188783596,     0.46193976625564320270811435875657,     0.54489510677581842745809126427048,
            -0.81549315684891721112137474847259,    -0.69134171618254502966749441839056,    -0.46193976625564348026387051504571,    -0.16221167441072895099019035569654,     0.16221167441072883996788789318089,     0.46193976625564320270811435875657,     0.69134171618254502966749441839056,     0.81549315684891721112137474847259,
            -0.96193976625564336924156805253006,    -0.81549315684891710009907228595694,    -0.54489510677581864950269618930179,    -0.19134171618254494640076757150382,     0.19134171618254480762288949335925,     0.54489510677581842745809126427048,     0.81549315684891721112137474847259,     0.96193976625564336924156805253006,
    },
        // (v, u)=(1,2)
        {
             0.90612744635288777761417122746934,     0.37533027751786529613298171170754,    -0.37533027751786518511067924919189,    -0.90612744635288777761417122746934,    -0.90612744635288788863647368998500,    -0.37533027751786579573334279302799,     0.37533027751786546266643540548102,     0.90612744635288755556956630243803,
             0.76817775671141630411398182332050,     0.31818964514320852154938279454655,    -0.31818964514320846603823156328872,    -0.76817775671141630411398182332050,    -0.76817775671141641513628428583615,    -0.31818964514320896563859264460916,     0.31818964514320868808283648832003,     0.76817775671141608206937689828919,
             0.51327996715933676963317111585638,     0.21260752369181418197641164624656,    -0.21260752369181409870968479935982,    -0.51327996715933676963317111585638,    -0.51327996715933688065547357837204,    -0.21260752369181445953216780253570,     0.21260752369181426524313849313330,     0.51327996715933665861086865334073,
             0.18023995550173702029361777476879,     0.07465783405034263908728320302544,    -0.07465783405034262520949539521098,    -0.18023995550173702029361777476879,    -0.18023995550173704804919339039770,    -0.07465783405034273623179785772663,     0.07465783405034268072064662646881,     0.18023995550173699253804215913988,
            -0.18023995550173690927131531225314,    -0.07465783405034258357613197176761,     0.07465783405034256969834416395315,     0.18023995550173690927131531225314,     0.18023995550173693702689092788205,     0.07465783405034268072064662646881,    -0.07465783405034262520949539521098,    -0.18023995550173685376016408099531,
            -0.51327996715933654758856619082508,    -0.21260752369181404319853356810199,     0.21260752369181398768738233684417,     0.51327996715933654758856619082508,     0.51327996715933654758856619082508,     0.21260752369181432075428972439113,    -0.21260752369181412646526041498873,    -0.51327996715933632554396126579377,
            -0.76817775671141641513628428583615,    -0.31818964514320857706053402580437,     0.31818964514320846603823156328872,     0.76817775671141641513628428583615,     0.76817775671141652615858674835181,     0.31818964514320902114974387586699,    -0.31818964514320874359398771957785,    -0.76817775671141619309167936080485,
            -0.90612744635288777761417122746934,    -0.37533027751786529613298171170754,     0.37533027751786518511067924919189,     0.90612744635288777761417122746934,     0.90612744635288788863647368998500,     0.37533027751786579573334279302799,    -0.37533027751786546266643540548102,    -0.90612744635288755556956630243803,
    },
        // (v, u)=(1,3)
        {
             0.81549315684891710009907228595694,    -0.19134171618254480762288949335925,    -0.96193976625564336924156805253006,    -0.54489510677581853848039372678613,     0.54489510677581831643578880175482,     0.96193976625564336924156805253006,     0.19134171618254539048997742156644,    -0.81549315684891698907676982344128,
             0.69134171618254491864519195587491,    -0.16221167441072881221231227755197,    -0.81549315684891710009907228595694,    -0.46193976625564331373041682127223,     0.46193976625564303617466066498309,     0.81549315684891710009907228595694,     0.16221167441072931181267335887242,    -0.69134171618254480762288949335925,
             0.46193976625564342475271928378788,    -0.10838637566236958287291258784535,    -0.54489510677581864950269618930179,    -0.30865828381745513686595927538292,     0.30865828381745491482135435035161,     0.54489510677581864950269618930179,     0.10838637566236991593981997539231,    -0.46193976625564336924156805253006,
             0.16221167441072892323461474006763,    -0.03806023374435661688064413965549,    -0.19134171618254494640076757150382,    -0.10838637566236963838406381910318,     0.10838637566236958287291258784535,     0.19134171618254494640076757150382,     0.03806023374435673484184050607837,    -0.16221167441072889547903912443871,
            -0.16221167441072881221231227755197,     0.03806023374435658912506852402657,     0.19134171618254480762288949335925,     0.10838637566236956899512478003089,    -0.10838637566236949960618574095861,    -0.19134171618254480762288949335925,    -0.03806023374435670708626489044946,     0.16221167441072878445673666192306,
            -0.46193976625564314719696312749875,     0.10838637566236952736176135658752,     0.54489510677581842745809126427048,     0.30865828381745491482135435035161,    -0.30865828381745474828790065657813,    -0.54489510677581842745809126427048,    -0.10838637566236984655088093632003,     0.46193976625564309168581189624092,
            -0.69134171618254502966749441839056,     0.16221167441072883996788789318089,     0.81549315684891721112137474847259,     0.46193976625564342475271928378788,    -0.46193976625564314719696312749875,    -0.81549315684891721112137474847259,    -0.16221167441072931181267335887242,     0.69134171618254491864519195587491,
            -0.81549315684891710009907228595694,     0.19134171618254480762288949335925,     0.96193976625564336924156805253006,     0.54489510677581853848039372678613,    -0.54489510677581831643578880175482,    -0.96193976625564336924156805253006,    -0.19134171618254539048997742156644,     0.81549315684891698907676982344128,
    },
        // (v, u)=(1,4)
        {
             0.69351992266107376217121327499626,    -0.69351992266107365114891081248061,    -0.69351992266107387319351573751192,     0.69351992266107354012660834996495,     0.69351992266107387319351573751192,    -0.69351992266107287399279357487103,    -0.69351992266107331808200342493365,     0.69351992266107276297049111235538,
             0.58793780120967942259824212669628,    -0.58793780120967931157593966418062,    -0.58793780120967953362054458921193,     0.58793780120967920055363720166497,     0.58793780120967953362054458921193,    -0.58793780120967864544212488908670,    -0.58793780120967897850903227663366,     0.58793780120967853441982242657105,
             0.39284747919355117451445380538644,    -0.39284747919355111900330257412861,    -0.39284747919355123002560503664427,     0.39284747919355106349215134287078,     0.39284747919355123002560503664427,    -0.39284747919355067491409272406599,    -0.39284747919355089695869764909730,     0.39284747919355061940294149280817,
             0.13794968964147155676691625103558,    -0.13794968964147152901134063540667,    -0.13794968964147158452249186666450,     0.13794968964147152901134063540667,     0.13794968964147158452249186666450,    -0.13794968964147139023346255726210,    -0.13794968964147147350018940414884,     0.13794968964147136247788694163319,
            -0.13794968964147147350018940414884,     0.13794968964147144574461378851993,     0.13794968964147147350018940414884,    -0.13794968964147141798903817289101,    -0.13794968964147147350018940414884,     0.13794968964147127921116009474645,     0.13794968964147136247788694163319,    -0.13794968964147127921116009474645,
            -0.39284747919355095246984888035513,     0.39284747919355084144754641783948,     0.39284747919355100798100011161296,    -0.39284747919355078593639518658165,    -0.39284747919355100798100011161296,     0.39284747919355045286948779903469,     0.39284747919355067491409272406599,    -0.39284747919355039735833656777686,
            -0.58793780120967942259824212669628,     0.58793780120967942259824212669628,     0.58793780120967953362054458921193,    -0.58793780120967931157593966418062,    -0.58793780120967953362054458921193,     0.58793780120967875646442735160235,     0.58793780120967908953133473914932,    -0.58793780120967864544212488908670,
            -0.69351992266107376217121327499626,     0.69351992266107365114891081248061,     0.69351992266107387319351573751192,    -0.69351992266107354012660834996495,    -0.69351992266107387319351573751192,     0.69351992266107287399279357487103,     0.69351992266107331808200342493365,    -0.69351992266107276297049111235538,
    },
        // (v, u)=(1,5)
        {
             0.54489510677581864950269618930179,    -0.96193976625564336924156805253006,     0.19134171618254491864519195587491,     0.81549315684891732214367721098824,    -0.81549315684891698907676982344128,    -0.19134171618254464108943579958577,     0.96193976625564359128617297756136,    -0.54489510677581798336888141420786,
             0.46193976625564342475271928378788,    -0.81549315684891710009907228595694,     0.16221167441072889547903912443871,     0.69134171618254502966749441839056,    -0.69134171618254480762288949335925,    -0.16221167441072867343443419940741,     0.81549315684891732214367721098824,    -0.46193976625564275861890450869396,
             0.30865828381745519237711050664075,    -0.54489510677581864950269618930179,     0.10838637566236965226185162691763,     0.46193976625564353577502174630354,    -0.46193976625564336924156805253006,    -0.10838637566236949960618574095861,     0.54489510677581887154730111433310,    -0.30865828381745474828790065657813,
             0.10838637566236966613963943473209,    -0.19134171618254494640076757150382,     0.03806023374435664463621975528440,     0.16221167441072897874576597132545,    -0.16221167441072889547903912443871,    -0.03806023374435658912506852402657,     0.19134171618254497415634318713273,    -0.10838637566236951348397354877306,
            -0.10838637566236958287291258784535,     0.19134171618254480762288949335925,    -0.03806023374435661688064413965549,    -0.16221167441072886772346350880980,     0.16221167441072878445673666192306,     0.03806023374435656136949290839766,    -0.19134171618254486313404072461708,     0.10838637566236943021724670188632,
            -0.30865828381745502584365681286727,     0.54489510677581842745809126427048,    -0.10838637566236958287291258784535,    -0.46193976625564325821926559001440,     0.46193976625564309168581189624092,     0.10838637566236943021724670188632,    -0.54489510677581853848039372678613,     0.30865828381745458175444696280465,
            -0.46193976625564348026387051504571,     0.81549315684891721112137474847259,    -0.16221167441072892323461474006763,    -0.69134171618254514068979688090621,     0.69134171618254491864519195587491,     0.16221167441072870119000981503632,    -0.81549315684891743316597967350390,     0.46193976625564286964120697120961,
            -0.54489510677581864950269618930179,     0.96193976625564336924156805253006,    -0.19134171618254491864519195587491,    -0.81549315684891732214367721098824,     0.81549315684891698907676982344128,     0.19134171618254464108943579958577,    -0.96193976625564359128617297756136,     0.54489510677581798336888141420786,
    },
        // (v, u)=(1,6)
        {
             0.37533027751786529613298171170754,    -0.90612744635288788863647368998500,     0.90612744635288755556956630243803,    -0.37533027751786535164413294296537,    -0.37533027751786601777794771805929,     0.90612744635288777761417122746934,    -0.90612744635288744454726383992238,     0.37533027751786501857722555541841,
             0.31818964514320852154938279454655,    -0.76817775671141641513628428583615,     0.76817775671141608206937689828919,    -0.31818964514320857706053402580437,    -0.31818964514320913217204633838264,     0.76817775671141630411398182332050,    -0.76817775671141608206937689828919,     0.31818964514320829950477786951524,
             0.21260752369181418197641164624656,    -0.51327996715933688065547357837204,     0.51327996715933665861086865334073,    -0.21260752369181420973198726187547,    -0.21260752369181457055447026505135,     0.51327996715933676963317111585638,    -0.51327996715933665861086865334073,     0.21260752369181401544295795247308,
             0.07465783405034263908728320302544,    -0.18023995550173704804919339039770,     0.18023995550173699253804215913988,    -0.07465783405034265296507101083989,    -0.07465783405034277786516128117000,     0.18023995550173702029361777476879,    -0.18023995550173696478246654351096,     0.07465783405034258357613197176761,
            -0.07465783405034258357613197176761,     0.18023995550173693702689092788205,    -0.18023995550173685376016408099531,     0.07465783405034259745391977958207,     0.07465783405034273623179785772663,    -0.18023995550173690927131531225314,     0.18023995550173685376016408099531,    -0.07465783405034254194276854832424,
            -0.21260752369181404319853356810199,     0.51327996715933654758856619082508,    -0.51327996715933632554396126579377,     0.21260752369181407095410918373091,     0.21260752369181445953216780253570,    -0.51327996715933654758856619082508,     0.51327996715933632554396126579377,    -0.21260752369181390442065548995743,
            -0.31818964514320857706053402580437,     0.76817775671141652615858674835181,    -0.76817775671141619309167936080485,     0.31818964514320863257168525706220,     0.31818964514320918768319756964047,    -0.76817775671141641513628428583615,     0.76817775671141619309167936080485,    -0.31818964514320835501592910077306,
            -0.37533027751786529613298171170754,     0.90612744635288788863647368998500,    -0.90612744635288755556956630243803,     0.37533027751786535164413294296537,     0.37533027751786601777794771805929,    -0.90612744635288777761417122746934,     0.90612744635288744454726383992238,    -0.37533027751786501857722555541841,
    },
        // (v, u)=(1,7)
        {
             0.19134171618254494640076757150382,    -0.54489510677581853848039372678613,     0.81549315684891732214367721098824,    -0.96193976625564359128617297756136,     0.96193976625564336924156805253006,    -0.81549315684891687805446736092563,     0.54489510677581798336888141420786,    -0.19134171618254519620094811216404,
             0.16221167441072892323461474006763,    -0.46193976625564331373041682127223,     0.69134171618254502966749441839056,    -0.81549315684891732214367721098824,     0.81549315684891710009907228595694,    -0.69134171618254469660058703084360,     0.46193976625564275861890450869396,    -0.16221167441072914527921966509894,
             0.10838637566236966613963943473209,    -0.30865828381745513686595927538292,     0.46193976625564353577502174630354,    -0.54489510677581887154730111433310,     0.54489510677581864950269618930179,    -0.46193976625564331373041682127223,     0.30865828381745474828790065657813,    -0.10838637566236980491751751287666,
             0.03806023374435664463621975528440,    -0.10838637566236963838406381910318,     0.16221167441072897874576597132545,    -0.19134171618254497415634318713273,     0.19134171618254494640076757150382,    -0.16221167441072889547903912443871,     0.10838637566236951348397354877306,    -0.03806023374435669320847708263500,
            -0.03806023374435661688064413965549,     0.10838637566236956899512478003089,    -0.16221167441072886772346350880980,     0.19134171618254486313404072461708,    -0.19134171618254480762288949335925,     0.16221167441072875670116104629415,    -0.10838637566236943021724670188632,     0.03806023374435666545290146700609,
            -0.10838637566236959675070039565981,     0.30865828381745491482135435035161,    -0.46193976625564325821926559001440,     0.54489510677581853848039372678613,    -0.54489510677581842745809126427048,     0.46193976625564303617466066498309,    -0.30865828381745458175444696280465,     0.10838637566236973552857847380437,
            -0.16221167441072895099019035569654,     0.46193976625564342475271928378788,    -0.69134171618254514068979688090621,     0.81549315684891743316597967350390,    -0.81549315684891721112137474847259,     0.69134171618254480762288949335925,    -0.46193976625564286964120697120961,     0.16221167441072914527921966509894,
            -0.19134171618254494640076757150382,     0.54489510677581853848039372678613,    -0.81549315684891732214367721098824,     0.96193976625564359128617297756136,    -0.96193976625564336924156805253006,     0.81549315684891687805446736092563,    -0.54489510677581798336888141420786,     0.19134171618254519620094811216404,
    },
    },
    {
        // (v, u)=(2,0)
        {
             0.92387953251128673848313610506011,     0.92387953251128673848313610506011,     0.92387953251128673848313610506011,     0.92387953251128673848313610506011,     0.92387953251128673848313610506011,     0.92387953251128673848313610506011,     0.92387953251128673848313610506011,     0.92387953251128673848313610506011,
             0.38268343236508983729038391174981,     0.38268343236508983729038391174981,     0.38268343236508983729038391174981,     0.38268343236508983729038391174981,     0.38268343236508983729038391174981,     0.38268343236508983729038391174981,     0.38268343236508983729038391174981,     0.38268343236508983729038391174981,
            -0.38268343236508972626808144923416,    -0.38268343236508972626808144923416,    -0.38268343236508972626808144923416,    -0.38268343236508972626808144923416,    -0.38268343236508972626808144923416,    -0.38268343236508972626808144923416,    -0.38268343236508972626808144923416,    -0.38268343236508972626808144923416,
            -0.92387953251128673848313610506011,    -0.92387953251128673848313610506011,    -0.92387953251128673848313610506011,    -0.92387953251128673848313610506011,    -0.92387953251128673848313610506011,    -0.92387953251128673848313610506011,    -0.92387953251128673848313610506011,    -0.92387953251128673848313610506011,
            -0.92387953251128684950543856757577,    -0.92387953251128684950543856757577,    -0.92387953251128684950543856757577,    -0.92387953251128684950543856757577,    -0.92387953251128684950543856757577,    -0.92387953251128684950543856757577,    -0.92387953251128684950543856757577,    -0.92387953251128684950543856757577,
            -0.38268343236509033689074499307026,    -0.38268343236509033689074499307026,    -0.38268343236509033689074499307026,    -0.38268343236509033689074499307026,    -0.38268343236509033689074499307026,    -0.38268343236509033689074499307026,    -0.38268343236509033689074499307026,    -0.38268343236509033689074499307026,
             0.38268343236509000382383760552329,     0.38268343236509000382383760552329,     0.38268343236509000382383760552329,     0.38268343236509000382383760552329,     0.38268343236509000382383760552329,     0.38268343236509000382383760552329,     0.38268343236509000382383760552329,     0.38268343236509000382383760552329,
             0.92387953251128651643853118002880,     0.92387953251128651643853118002880,     0.92387953251128651643853118002880,     0.92387953251128651643853118002880,     0.92387953251128651643853118002880,     0.92387953251128651643853118002880,     0.92387953251128651643853118002880,     0.92387953251128651643853118002880,
    },
        // (v, u)=(2,1)
        {
             0.90612744635288777761417122746934,     0.76817775671141630411398182332050,     0.51327996715933676963317111585638,     0.18023995550173702029361777476879,    -0.18023995550173690927131531225314,    -0.51327996715933654758856619082508,    -0.76817775671141641513628428583615,    -0.90612744635288777761417122746934,
             0.37533027751786529613298171170754,     0.31818964514320852154938279454655,     0.21260752369181418197641164624656,     0.07465783405034263908728320302544,    -0.07465783405034258357613197176761,    -0.21260752369181404319853356810199,    -0.31818964514320857706053402580437,    -0.37533027751786529613298171170754,
            -0.37533027751786518511067924919189,    -0.31818964514320846603823156328872,    -0.21260752369181409870968479935982,    -0.07465783405034262520949539521098,     0.07465783405034256969834416395315,     0.21260752369181398768738233684417,     0.31818964514320846603823156328872,     0.37533027751786518511067924919189,
            -0.90612744635288777761417122746934,    -0.76817775671141630411398182332050,    -0.51327996715933676963317111585638,    -0.18023995550173702029361777476879,     0.18023995550173690927131531225314,     0.51327996715933654758856619082508,     0.76817775671141641513628428583615,     0.90612744635288777761417122746934,
            -0.90612744635288788863647368998500,    -0.76817775671141641513628428583615,    -0.51327996715933688065547357837204,    -0.18023995550173704804919339039770,     0.18023995550173693702689092788205,     0.51327996715933654758856619082508,     0.76817775671141652615858674835181,     0.90612744635288788863647368998500,
            -0.37533027751786579573334279302799,    -0.31818964514320896563859264460916,    -0.21260752369181445953216780253570,    -0.07465783405034273623179785772663,     0.07465783405034268072064662646881,     0.21260752369181432075428972439113,     0.31818964514320902114974387586699,     0.37533027751786579573334279302799,
             0.37533027751786546266643540548102,     0.31818964514320868808283648832003,     0.21260752369181426524313849313330,     0.07465783405034268072064662646881,    -0.07465783405034262520949539521098,    -0.21260752369181412646526041498873,    -0.31818964514320874359398771957785,    -0.37533027751786546266643540548102,
             0.90612744635288755556956630243803,     0.76817775671141608206937689828919,     0.51327996715933665861086865334073,     0.18023995550173699253804215913988,    -0.18023995550173685376016408099531,    -0.51327996715933632554396126579377,    -0.76817775671141619309167936080485,    -0.90612744635288755556956630243803,
    },
        // (v, u)=(2,2)
        {
             0.85355339059327373085750423342688,     0.35355339059327384187980669594253,    -0.35355339059327373085750423342688,    -0.85355339059327373085750423342688,    -0.85355339059327384187980669594253,    -0.35355339059327428596901654600515,     0.35355339059327395290210915845819,     0.85355339059327350881289930839557,
             0.35355339059327384187980669594253,     0.14644660940672629689807138220203,    -0.14644660940672624138692015094421,    -0.35355339059327384187980669594253,    -0.35355339059327384187980669594253,    -0.14644660940672649118710069160443,     0.14644660940672635240922261345986,     0.35355339059327373085750423342688,
            -0.35355339059327373085750423342688,    -0.14644660940672624138692015094421,     0.14644660940672621363134453531529,     0.35355339059327373085750423342688,     0.35355339059327373085750423342688,     0.14644660940672643567594946034660,    -0.14644660940672629689807138220203,    -0.35355339059327361983520177091123,
            -0.85355339059327373085750423342688,    -0.35355339059327384187980669594253,     0.35355339059327373085750423342688,     0.85355339059327373085750423342688,     0.85355339059327384187980669594253,     0.35355339059327428596901654600515,    -0.35355339059327395290210915845819,    -0.85355339059327350881289930839557,
            -0.85355339059327384187980669594253,    -0.35355339059327384187980669594253,     0.35355339059327373085750423342688,     0.85355339059327384187980669594253,     0.85355339059327395290210915845819,     0.35355339059327434148016777726298,    -0.35355339059327400841326038971602,    -0.85355339059327361983520177091123,
            -0.35355339059327428596901654600515,    -0.14644660940672649118710069160443,     0.14644660940672643567594946034660,     0.35355339059327428596901654600515,     0.35355339059327434148016777726298,     0.14644660940672665772055438537791,    -0.14644660940672654669825192286226,    -0.35355339059327417494671408348950,
             0.35355339059327395290210915845819,     0.14644660940672635240922261345986,    -0.14644660940672629689807138220203,    -0.35355339059327395290210915845819,    -0.35355339059327400841326038971602,    -0.14644660940672654669825192286226,     0.14644660940672640792037384471769,     0.35355339059327389739095792720036,
             0.85355339059327350881289930839557,     0.35355339059327373085750423342688,    -0.35355339059327361983520177091123,    -0.85355339059327350881289930839557,    -0.85355339059327361983520177091123,    -0.35355339059327417494671408348950,     0.35355339059327389739095792720036,     0.85355339059327328676829438336426,
    },
        // (v, u)=(2,3)
        {
             0.76817775671141630411398182332050,    -0.18023995550173690927131531225314,    -0.90612744635288777761417122746934,    -0.51327996715933665861086865334073,     0.51327996715933643656626372830942,     0.90612744635288777761417122746934,     0.18023995550173743662725200920249,    -0.76817775671141619309167936080485,
             0.31818964514320852154938279454655,    -0.07465783405034258357613197176761,    -0.37533027751786529613298171170754,    -0.21260752369181412646526041498873,     0.21260752369181401544295795247308,     0.37533027751786529613298171170754,     0.07465783405034281949852470461337,    -0.31818964514320852154938279454655,
            -0.31818964514320846603823156328872,     0.07465783405034256969834416395315,     0.37533027751786518511067924919189,     0.21260752369181407095410918373091,    -0.21260752369181393217623110558634,    -0.37533027751786518511067924919189,    -0.07465783405034279174294908898446,     0.31818964514320841052708033203089,
            -0.76817775671141630411398182332050,     0.18023995550173690927131531225314,     0.90612744635288777761417122746934,     0.51327996715933665861086865334073,    -0.51327996715933643656626372830942,    -0.90612744635288777761417122746934,    -0.18023995550173743662725200920249,     0.76817775671141619309167936080485,
            -0.76817775671141641513628428583615,     0.18023995550173693702689092788205,     0.90612744635288788863647368998500,     0.51327996715933676963317111585638,    -0.51327996715933643656626372830942,    -0.90612744635288788863647368998500,    -0.18023995550173746438282762483141,     0.76817775671141630411398182332050,
            -0.31818964514320896563859264460916,     0.07465783405034268072064662646881,     0.37533027751786579573334279302799,     0.21260752369181440402101657127787,    -0.21260752369181429299871410876221,    -0.37533027751786579573334279302799,    -0.07465783405034291664303935931457,     0.31818964514320891012744141335133,
             0.31818964514320868808283648832003,    -0.07465783405034262520949539521098,    -0.37533027751786546266643540548102,    -0.21260752369181420973198726187547,     0.21260752369181409870968479935982,     0.37533027751786546266643540548102,     0.07465783405034284725410032024229,    -0.31818964514320863257168525706220,
             0.76817775671141608206937689828919,    -0.18023995550173685376016408099531,    -0.90612744635288755556956630243803,    -0.51327996715933654758856619082508,     0.51327996715933621452165880327811,     0.90612744635288755556956630243803,     0.18023995550173740887167639357358,    -0.76817775671141608206937689828919,
    },
        // (v, u)=(2,4)
        {
             0.65328148243818828788676000840496,    -0.65328148243818817686445754588931,    -0.65328148243818839890906247092062,     0.65328148243818806584215508337365,     0.65328148243818839890906247092062,    -0.65328148243818751073064277079538,    -0.65328148243818784379755015834235,     0.65328148243818739970834030827973,
             0.27059805007309856161867855917080,    -0.27059805007309850610752732791298,    -0.27059805007309861712982979042863,     0.27059805007309845059637609665515,     0.27059805007309861712982979042863,    -0.27059805007309822855177117162384,    -0.27059805007309839508522486539732,     0.27059805007309817304061994036601,
            -0.27059805007309850610752732791298,     0.27059805007309845059637609665515,     0.27059805007309850610752732791298,    -0.27059805007309839508522486539732,    -0.27059805007309850610752732791298,     0.27059805007309811752946870910819,     0.27059805007309828406292240288167,    -0.27059805007309811752946870910819,
            -0.65328148243818828788676000840496,     0.65328148243818817686445754588931,     0.65328148243818839890906247092062,    -0.65328148243818806584215508337365,    -0.65328148243818839890906247092062,     0.65328148243818751073064277079538,     0.65328148243818784379755015834235,    -0.65328148243818739970834030827973,
            -0.65328148243818839890906247092062,     0.65328148243818828788676000840496,     0.65328148243818850993136493343627,    -0.65328148243818817686445754588931,    -0.65328148243818850993136493343627,     0.65328148243818751073064277079538,     0.65328148243818795481985262085800,    -0.65328148243818739970834030827973,
            -0.27059805007309889468558594671777,     0.27059805007309889468558594671777,     0.27059805007309895019673717797559,    -0.27059805007309883917443471545994,    -0.27059805007309895019673717797559,     0.27059805007309856161867855917080,     0.27059805007309872815213225294428,    -0.27059805007309850610752732791298,
             0.27059805007309867264098102168646,    -0.27059805007309861712982979042863,    -0.27059805007309872815213225294428,     0.27059805007309861712982979042863,     0.27059805007309872815213225294428,    -0.27059805007309833957407363413949,    -0.27059805007309850610752732791298,     0.27059805007309828406292240288167,
             0.65328148243818817686445754588931,    -0.65328148243818806584215508337365,    -0.65328148243818828788676000840496,     0.65328148243818795481985262085800,     0.65328148243818828788676000840496,    -0.65328148243818728868603784576408,    -0.65328148243818773277524769582669,     0.65328148243818717766373538324842,
    },
        // (v, u)=(2,5)
        {
             0.51327996715933676963317111585638,    -0.90612744635288777761417122746934,     0.18023995550173702029361777476879,     0.76817775671141652615858674835181,    -0.76817775671141619309167936080485,    -0.18023995550173674273786161847966,     0.90612744635288799965877615250065,    -0.51327996715933610349935634076246,
             0.21260752369181418197641164624656,    -0.37533027751786529613298171170754,     0.07465783405034263908728320302544,     0.31818964514320863257168525706220,    -0.31818964514320852154938279454655,    -0.07465783405034252806498074050978,     0.37533027751786540715528417422320,    -0.21260752369181387666507987432851,
            -0.21260752369181409870968479935982,     0.37533027751786518511067924919189,    -0.07465783405034261133170758739652,    -0.31818964514320852154938279454655,     0.31818964514320841052708033203089,     0.07465783405034250030940512488087,    -0.37533027751786529613298171170754,     0.21260752369181382115392864307069,
            -0.51327996715933676963317111585638,     0.90612744635288777761417122746934,    -0.18023995550173702029361777476879,    -0.76817775671141652615858674835181,     0.76817775671141619309167936080485,     0.18023995550173674273786161847966,    -0.90612744635288799965877615250065,     0.51327996715933610349935634076246,
            -0.51327996715933688065547357837204,     0.90612744635288788863647368998500,    -0.18023995550173702029361777476879,    -0.76817775671141663718088921086746,     0.76817775671141630411398182332050,     0.18023995550173677049343723410857,    -0.90612744635288811068107861501630,     0.51327996715933610349935634076246,
            -0.21260752369181445953216780253570,     0.37533027751786579573334279302799,    -0.07465783405034273623179785772663,    -0.31818964514320902114974387586699,     0.31818964514320891012744141335133,     0.07465783405034262520949539521098,    -0.37533027751786585124449402428581,     0.21260752369181415422083603061765,
             0.21260752369181426524313849313330,    -0.37533027751786546266643540548102,     0.07465783405034266684285881865435,     0.31818964514320874359398771957785,    -0.31818964514320863257168525706220,    -0.07465783405034255582055635613870,     0.37533027751786557368873786799668,    -0.21260752369181395993180672121525,
             0.51327996715933665861086865334073,    -0.90612744635288755556956630243803,     0.18023995550173696478246654351096,     0.76817775671141630411398182332050,    -0.76817775671141608206937689828919,    -0.18023995550173671498228600285074,     0.90612744635288777761417122746934,    -0.51327996715933599247705387824681,
    },
        // (v, u)=(2,6)
        {
             0.35355339059327384187980669594253,    -0.85355339059327384187980669594253,     0.85355339059327350881289930839557,    -0.35355339059327384187980669594253,    -0.35355339059327450801362147103646,     0.85355339059327373085750423342688,    -0.85355339059327339779059684587992,     0.35355339059327356432405053965340,
             0.14644660940672629689807138220203,    -0.35355339059327384187980669594253,     0.35355339059327373085750423342688,    -0.14644660940672629689807138220203,    -0.14644660940672657445382753849117,     0.35355339059327384187980669594253,    -0.35355339059327367534635300216905,     0.14644660940672618587576891968638,
            -0.14644660940672624138692015094421,     0.35355339059327373085750423342688,    -0.35355339059327361983520177091123,     0.14644660940672626914249576657312,     0.14644660940672651894267630723334,    -0.35355339059327373085750423342688,     0.35355339059327356432405053965340,    -0.14644660940672613036461768842855,
            -0.35355339059327384187980669594253,     0.85355339059327384187980669594253,    -0.85355339059327350881289930839557,     0.35355339059327384187980669594253,     0.35355339059327450801362147103646,    -0.85355339059327373085750423342688,     0.85355339059327339779059684587992,    -0.35355339059327356432405053965340,
            -0.35355339059327384187980669594253,     0.85355339059327395290210915845819,    -0.85355339059327361983520177091123,     0.35355339059327389739095792720036,     0.35355339059327450801362147103646,    -0.85355339059327384187980669594253,     0.85355339059327350881289930839557,    -0.35355339059327361983520177091123,
            -0.14644660940672649118710069160443,     0.35355339059327434148016777726298,    -0.35355339059327417494671408348950,     0.14644660940672649118710069160443,     0.14644660940672676874285684789356,    -0.35355339059327428596901654600515,     0.35355339059327417494671408348950,    -0.14644660940672638016479822908877,
             0.14644660940672635240922261345986,    -0.35355339059327400841326038971602,     0.35355339059327389739095792720036,    -0.14644660940672638016479822908877,    -0.14644660940672662996497876974900,     0.35355339059327395290210915845819,    -0.35355339059327384187980669594253,     0.14644660940672624138692015094421,
             0.35355339059327373085750423342688,    -0.85355339059327361983520177091123,     0.85355339059327328676829438336426,    -0.35355339059327378636865546468471,    -0.35355339059327439699131900852080,     0.85355339059327350881289930839557,    -0.85355339059327317574599192084861,     0.35355339059327345330174807713774,
    },
        // (v, u)=(2,7)
        {
             0.18023995550173702029361777476879,    -0.51327996715933665861086865334073,     0.76817775671141652615858674835181,    -0.90612744635288799965877615250065,     0.90612744635288777761417122746934,    -0.76817775671141608206937689828919,     0.51327996715933610349935634076246,    -0.18023995550173727009379831542901,
             0.07465783405034263908728320302544,    -0.21260752369181412646526041498873,     0.31818964514320863257168525706220,    -0.37533027751786540715528417422320,     0.37533027751786529613298171170754,    -0.31818964514320846603823156328872,     0.21260752369181387666507987432851,    -0.07465783405034273623179785772663,
            -0.07465783405034262520949539521098,     0.21260752369181407095410918373091,    -0.31818964514320852154938279454655,     0.37533027751786529613298171170754,    -0.37533027751786518511067924919189,     0.31818964514320835501592910077306,    -0.21260752369181382115392864307069,     0.07465783405034272235401004991218,
            -0.18023995550173702029361777476879,     0.51327996715933665861086865334073,    -0.76817775671141652615858674835181,     0.90612744635288799965877615250065,    -0.90612744635288777761417122746934,     0.76817775671141608206937689828919,    -0.51327996715933610349935634076246,     0.18023995550173727009379831542901,
            -0.18023995550173704804919339039770,     0.51327996715933676963317111585638,    -0.76817775671141663718088921086746,     0.90612744635288811068107861501630,    -0.90612744635288788863647368998500,     0.76817775671141619309167936080485,    -0.51327996715933610349935634076246,     0.18023995550173729784937393105793,
            -0.07465783405034273623179785772663,     0.21260752369181440402101657127787,    -0.31818964514320902114974387586699,     0.37533027751786585124449402428581,    -0.37533027751786579573334279302799,     0.31818964514320885461629018209351,    -0.21260752369181415422083603061765,     0.07465783405034283337631251242783,
             0.07465783405034268072064662646881,    -0.21260752369181420973198726187547,     0.31818964514320874359398771957785,    -0.37533027751786557368873786799668,     0.37533027751786546266643540548102,    -0.31818964514320857706053402580437,     0.21260752369181395993180672121525,    -0.07465783405034277786516128117000,
             0.18023995550173699253804215913988,    -0.51327996715933654758856619082508,     0.76817775671141630411398182332050,    -0.90612744635288777761417122746934,     0.90612744635288755556956630243803,    -0.76817775671141597104707443577354,     0.51327996715933599247705387824681,    -0.18023995550173721458264708417119,
    },
    },
    {
        // (v, u)=(3,0)
        {
             0.83146961230254523567140267914510,     0.83146961230254523567140267914510,     0.83146961230254523567140267914510,     0.83146961230254523567140267914510,     0.83146961230254523567140267914510,     0.83146961230254523567140267914510,     0.83146961230254523567140267914510,     0.83146961230254523567140267914510,
            -0.19509032201612819257263709005201,    -0.19509032201612819257263709005201,    -0.19509032201612819257263709005201,    -0.19509032201612819257263709005201,    -0.19509032201612819257263709005201,    -0.19509032201612819257263709005201,    -0.19509032201612819257263709005201,    -0.19509032201612819257263709005201,
            -0.98078528040323043057924223830923,    -0.98078528040323043057924223830923,    -0.98078528040323043057924223830923,    -0.98078528040323043057924223830923,    -0.98078528040323043057924223830923,    -0.98078528040323043057924223830923,    -0.98078528040323043057924223830923,    -0.98078528040323043057924223830923,
            -0.55557023301960217764872140833177,    -0.55557023301960217764872140833177,    -0.55557023301960217764872140833177,    -0.55557023301960217764872140833177,    -0.55557023301960217764872140833177,    -0.55557023301960217764872140833177,    -0.55557023301960217764872140833177,    -0.55557023301960217764872140833177,
             0.55557023301960184458181402078480,     0.55557023301960184458181402078480,     0.55557023301960184458181402078480,     0.55557023301960184458181402078480,     0.55557023301960184458181402078480,     0.55557023301960184458181402078480,     0.55557023301960184458181402078480,     0.55557023301960184458181402078480,
             0.98078528040323043057924223830923,     0.98078528040323043057924223830923,     0.98078528040323043057924223830923,     0.98078528040323043057924223830923,     0.98078528040323043057924223830923,     0.98078528040323043057924223830923,     0.98078528040323043057924223830923,     0.98078528040323043057924223830923,
             0.19509032201612877543972501825920,     0.19509032201612877543972501825920,     0.19509032201612877543972501825920,     0.19509032201612877543972501825920,     0.19509032201612877543972501825920,     0.19509032201612877543972501825920,     0.19509032201612877543972501825920,     0.19509032201612877543972501825920,
            -0.83146961230254512464910021662945,    -0.83146961230254512464910021662945,    -0.83146961230254512464910021662945,    -0.83146961230254512464910021662945,    -0.83146961230254512464910021662945,    -0.83146961230254512464910021662945,    -0.83146961230254512464910021662945,    -0.83146961230254512464910021662945,
    },
        // (v, u)=(3,1)
        {
             0.81549315684891710009907228595694,     0.69134171618254491864519195587491,     0.46193976625564342475271928378788,     0.16221167441072892323461474006763,    -0.16221167441072881221231227755197,    -0.46193976625564314719696312749875,    -0.69134171618254502966749441839056,    -0.81549315684891710009907228595694,
            -0.19134171618254480762288949335925,    -0.16221167441072881221231227755197,    -0.10838637566236958287291258784535,    -0.03806023374435661688064413965549,     0.03806023374435658912506852402657,     0.10838637566236952736176135658752,     0.16221167441072883996788789318089,     0.19134171618254480762288949335925,
            -0.96193976625564336924156805253006,    -0.81549315684891710009907228595694,    -0.54489510677581864950269618930179,    -0.19134171618254494640076757150382,     0.19134171618254480762288949335925,     0.54489510677581842745809126427048,     0.81549315684891721112137474847259,     0.96193976625564336924156805253006,
            -0.54489510677581853848039372678613,    -0.46193976625564331373041682127223,    -0.30865828381745513686595927538292,    -0.10838637566236963838406381910318,     0.10838637566236956899512478003089,     0.30865828381745491482135435035161,     0.46193976625564342475271928378788,     0.54489510677581853848039372678613,
             0.54489510677581831643578880175482,     0.46193976625564303617466066498309,     0.30865828381745491482135435035161,     0.10838637566236958287291258784535,    -0.10838637566236949960618574095861,    -0.30865828381745474828790065657813,    -0.46193976625564314719696312749875,    -0.54489510677581831643578880175482,
             0.96193976625564336924156805253006,     0.81549315684891710009907228595694,     0.54489510677581864950269618930179,     0.19134171618254494640076757150382,    -0.19134171618254480762288949335925,    -0.54489510677581842745809126427048,    -0.81549315684891721112137474847259,    -0.96193976625564336924156805253006,
             0.19134171618254539048997742156644,     0.16221167441072931181267335887242,     0.10838637566236991593981997539231,     0.03806023374435673484184050607837,    -0.03806023374435670708626489044946,    -0.10838637566236984655088093632003,    -0.16221167441072931181267335887242,    -0.19134171618254539048997742156644,
            -0.81549315684891698907676982344128,    -0.69134171618254480762288949335925,    -0.46193976625564336924156805253006,    -0.16221167441072889547903912443871,     0.16221167441072878445673666192306,     0.46193976625564309168581189624092,     0.69134171618254491864519195587491,     0.81549315684891698907676982344128,
    },
        // (v, u)=(3,2)
        {
             0.76817775671141630411398182332050,     0.31818964514320852154938279454655,    -0.31818964514320846603823156328872,    -0.76817775671141630411398182332050,    -0.76817775671141641513628428583615,    -0.31818964514320896563859264460916,     0.31818964514320868808283648832003,     0.76817775671141608206937689828919,
            -0.18023995550173690927131531225314,    -0.07465783405034258357613197176761,     0.07465783405034256969834416395315,     0.18023995550173690927131531225314,     0.18023995550173693702689092788205,     0.07465783405034268072064662646881,    -0.07465783405034262520949539521098,    -0.18023995550173685376016408099531,
            -0.90612744635288777761417122746934,    -0.37533027751786529613298171170754,     0.37533027751786518511067924919189,     0.90612744635288777761417122746934,     0.90612744635288788863647368998500,     0.37533027751786579573334279302799,    -0.37533027751786546266643540548102,    -0.90612744635288755556956630243803,
            -0.51327996715933665861086865334073,    -0.21260752369181412646526041498873,     0.21260752369181407095410918373091,     0.51327996715933665861086865334073,     0.51327996715933676963317111585638,     0.21260752369181440402101657127787,    -0.21260752369181420973198726187547,    -0.51327996715933654758856619082508,
             0.51327996715933643656626372830942,     0.21260752369181401544295795247308,    -0.21260752369181393217623110558634,    -0.51327996715933643656626372830942,    -0.51327996715933643656626372830942,    -0.21260752369181429299871410876221,     0.21260752369181409870968479935982,     0.51327996715933621452165880327811,
             0.90612744635288777761417122746934,     0.37533027751786529613298171170754,    -0.37533027751786518511067924919189,    -0.90612744635288777761417122746934,    -0.90612744635288788863647368998500,    -0.37533027751786579573334279302799,     0.37533027751786546266643540548102,     0.90612744635288755556956630243803,
             0.18023995550173743662725200920249,     0.07465783405034281949852470461337,    -0.07465783405034279174294908898446,    -0.18023995550173743662725200920249,    -0.18023995550173746438282762483141,    -0.07465783405034291664303935931457,     0.07465783405034284725410032024229,     0.18023995550173740887167639357358,
            -0.76817775671141619309167936080485,    -0.31818964514320852154938279454655,     0.31818964514320841052708033203089,     0.76817775671141619309167936080485,     0.76817775671141630411398182332050,     0.31818964514320891012744141335133,    -0.31818964514320863257168525706220,    -0.76817775671141608206937689828919,
    },
        // (v, u)=(3,3)
        {
             0.69134171618254491864519195587491,    -0.16221167441072881221231227755197,    -0.81549315684891710009907228595694,    -0.46193976625564331373041682127223,     0.46193976625564303617466066498309,     0.81549315684891710009907228595694,     0.16221167441072931181267335887242,    -0.69134171618254480762288949335925,
            -0.16221167441072881221231227755197,     0.03806023374435658912506852402657,     0.19134171618254480762288949335925,     0.10838637566236956899512478003089,    -0.10838637566236949960618574095861,    -0.19134171618254480762288949335925,    -0.03806023374435670708626489044946,     0.16221167441072878445673666192306,
            -0.81549315684891710009907228595694,     0.19134171618254480762288949335925,     0.96193976625564336924156805253006,     0.54489510677581853848039372678613,    -0.54489510677581831643578880175482,    -0.96193976625564336924156805253006,    -0.19134171618254539048997742156644,     0.81549315684891698907676982344128,
            -0.46193976625564331373041682127223,     0.10838637566236956899512478003089,     0.54489510677581853848039372678613,     0.30865828381745508135480804412509,    -0.30865828381745485931020311909379,    -0.54489510677581853848039372678613,    -0.10838637566236988818424435976340,     0.46193976625564325821926559001440,
             0.46193976625564303617466066498309,    -0.10838637566236949960618574095861,    -0.54489510677581831643578880175482,    -0.30865828381745485931020311909379,     0.30865828381745469277674942532030,     0.54489510677581831643578880175482,     0.10838637566236981879530532069111,    -0.46193976625564298066350943372527,
             0.81549315684891710009907228595694,    -0.19134171618254480762288949335925,    -0.96193976625564336924156805253006,    -0.54489510677581853848039372678613,     0.54489510677581831643578880175482,     0.96193976625564336924156805253006,     0.19134171618254539048997742156644,    -0.81549315684891698907676982344128,
             0.16221167441072931181267335887242,    -0.03806023374435670708626489044946,    -0.19134171618254539048997742156644,    -0.10838637566236988818424435976340,     0.10838637566236981879530532069111,     0.19134171618254539048997742156644,     0.03806023374435681810856735296511,    -0.16221167441072928405709774324350,
            -0.69134171618254480762288949335925,     0.16221167441072878445673666192306,     0.81549315684891698907676982344128,     0.46193976625564325821926559001440,    -0.46193976625564298066350943372527,    -0.81549315684891698907676982344128,    -0.16221167441072928405709774324350,     0.69134171618254469660058703084360,
    },
        // (v, u)=(3,4)
        {
             0.58793780120967942259824212669628,    -0.58793780120967931157593966418062,    -0.58793780120967953362054458921193,     0.58793780120967920055363720166497,     0.58793780120967953362054458921193,    -0.58793780120967864544212488908670,    -0.58793780120967897850903227663366,     0.58793780120967853441982242657105,
            -0.13794968964147147350018940414884,     0.13794968964147144574461378851993,     0.13794968964147147350018940414884,    -0.13794968964147141798903817289101,    -0.13794968964147147350018940414884,     0.13794968964147127921116009474645,     0.13794968964147136247788694163319,    -0.13794968964147127921116009474645,
            -0.69351992266107376217121327499626,     0.69351992266107365114891081248061,     0.69351992266107387319351573751192,    -0.69351992266107354012660834996495,    -0.69351992266107387319351573751192,     0.69351992266107287399279357487103,     0.69351992266107331808200342493365,    -0.69351992266107276297049111235538,
            -0.39284747919355106349215134287078,     0.39284747919355100798100011161296,     0.39284747919355111900330257412861,    -0.39284747919355095246984888035513,    -0.39284747919355111900330257412861,     0.39284747919355056389179026155034,     0.39284747919355084144754641783948,    -0.39284747919355050838063903029251,
             0.39284747919355084144754641783948,    -0.39284747919355078593639518658165,    -0.39284747919355089695869764909730,     0.39284747919355073042524395532382,     0.39284747919355089695869764909730,    -0.39284747919355034184718533651903,    -0.39284747919355061940294149280817,     0.39284747919355028633603410526121,
             0.69351992266107376217121327499626,    -0.69351992266107365114891081248061,    -0.69351992266107387319351573751192,     0.69351992266107354012660834996495,     0.69351992266107387319351573751192,    -0.69351992266107287399279357487103,    -0.69351992266107331808200342493365,     0.69351992266107276297049111235538,
             0.13794968964147186207824802295363,    -0.13794968964147186207824802295363,    -0.13794968964147188983382363858254,     0.13794968964147183432267240732472,     0.13794968964147188983382363858254,    -0.13794968964147169554479432918015,    -0.13794968964147177881152117606689,     0.13794968964147166778921871355124,
            -0.58793780120967931157593966418062,     0.58793780120967920055363720166497,     0.58793780120967942259824212669628,    -0.58793780120967908953133473914932,    -0.58793780120967942259824212669628,     0.58793780120967853441982242657105,     0.58793780120967897850903227663366,    -0.58793780120967853441982242657105,
    },
        // (v, u)=(3,5)
        {
             0.46193976625564342475271928378788,    -0.81549315684891710009907228595694,     0.16221167441072889547903912443871,     0.69134171618254502966749441839056,    -0.69134171618254480762288949335925,    -0.16221167441072867343443419940741,     0.81549315684891732214367721098824,    -0.46193976625564275861890450869396,
            -0.10838637566236958287291258784535,     0.19134171618254480762288949335925,    -0.03806023374435661688064413965549,    -0.16221167441072886772346350880980,     0.16221167441072878445673666192306,     0.03806023374435656136949290839766,    -0.19134171618254486313404072461708,     0.10838637566236943021724670188632,
            -0.54489510677581864950269618930179,     0.96193976625564336924156805253006,    -0.19134171618254491864519195587491,    -0.81549315684891732214367721098824,     0.81549315684891698907676982344128,     0.19134171618254464108943579958577,    -0.96193976625564359128617297756136,     0.54489510677581798336888141420786,
            -0.30865828381745513686595927538292,     0.54489510677581853848039372678613,    -0.10838637566236962450627601128872,    -0.46193976625564348026387051504571,     0.46193976625564325821926559001440,     0.10838637566236947185061012532969,    -0.54489510677581876052499865181744,     0.30865828381745469277674942532030,
             0.30865828381745491482135435035161,    -0.54489510677581831643578880175482,     0.10838637566236955511733697221644,     0.46193976625564320270811435875657,    -0.46193976625564298066350943372527,    -0.10838637566236940246167108625741,     0.54489510677581842745809126427048,    -0.30865828381745452624329573154682,
             0.54489510677581864950269618930179,    -0.96193976625564336924156805253006,     0.19134171618254491864519195587491,     0.81549315684891732214367721098824,    -0.81549315684891698907676982344128,    -0.19134171618254464108943579958577,     0.96193976625564359128617297756136,    -0.54489510677581798336888141420786,
             0.10838637566236991593981997539231,    -0.19134171618254539048997742156644,     0.03806023374435672790294660217114,     0.16221167441072933956824897450133,    -0.16221167441072928405709774324350,    -0.03806023374435667239179537091331,     0.19134171618254541824555303719535,    -0.10838637566236976328415408943329,
            -0.46193976625564336924156805253006,     0.81549315684891698907676982344128,    -0.16221167441072889547903912443871,    -0.69134171618254502966749441839056,     0.69134171618254469660058703084360,     0.16221167441072864567885858377849,    -0.81549315684891721112137474847259,     0.46193976625564270310775327743613,
    },
        // (v, u)=(3,6)
        {
             0.31818964514320852154938279454655,    -0.76817775671141641513628428583615,     0.76817775671141608206937689828919,    -0.31818964514320857706053402580437,    -0.31818964514320913217204633838264,     0.76817775671141630411398182332050,    -0.76817775671141608206937689828919,     0.31818964514320829950477786951524,
            -0.07465783405034258357613197176761,     0.18023995550173693702689092788205,    -0.18023995550173685376016408099531,     0.07465783405034259745391977958207,     0.07465783405034273623179785772663,    -0.18023995550173690927131531225314,     0.18023995550173685376016408099531,    -0.07465783405034254194276854832424,
            -0.37533027751786529613298171170754,     0.90612744635288788863647368998500,    -0.90612744635288755556956630243803,     0.37533027751786535164413294296537,     0.37533027751786601777794771805929,    -0.90612744635288777761417122746934,     0.90612744635288744454726383992238,    -0.37533027751786501857722555541841,
            -0.21260752369181412646526041498873,     0.51327996715933676963317111585638,    -0.51327996715933654758856619082508,     0.21260752369181415422083603061765,     0.21260752369181454279889464942244,    -0.51327996715933665861086865334073,     0.51327996715933654758856619082508,    -0.21260752369181398768738233684417,
             0.21260752369181401544295795247308,    -0.51327996715933643656626372830942,     0.51327996715933621452165880327811,    -0.21260752369181404319853356810199,    -0.21260752369181440402101657127787,     0.51327996715933643656626372830942,    -0.51327996715933621452165880327811,     0.21260752369181384890950425869960,
             0.37533027751786529613298171170754,    -0.90612744635288788863647368998500,     0.90612744635288755556956630243803,    -0.37533027751786535164413294296537,    -0.37533027751786601777794771805929,     0.90612744635288777761417122746934,    -0.90612744635288744454726383992238,     0.37533027751786501857722555541841,
             0.07465783405034281949852470461337,    -0.18023995550173746438282762483141,     0.18023995550173740887167639357358,    -0.07465783405034281949852470461337,    -0.07465783405034295827640278275794,     0.18023995550173743662725200920249,    -0.18023995550173738111610077794467,     0.07465783405034276398737347335555,
            -0.31818964514320852154938279454655,     0.76817775671141630411398182332050,    -0.76817775671141608206937689828919,     0.31818964514320852154938279454655,     0.31818964514320907666089510712482,    -0.76817775671141619309167936080485,     0.76817775671141597104707443577354,    -0.31818964514320824399362663825741,
    },
        // (v, u)=(3,7)
        {
             0.16221167441072892323461474006763,    -0.46193976625564331373041682127223,     0.69134171618254502966749441839056,    -0.81549315684891732214367721098824,     0.81549315684891710009907228595694,    -0.69134171618254469660058703084360,     0.46193976625564275861890450869396,    -0.16221167441072914527921966509894,
            -0.03806023374435661688064413965549,     0.10838637566236956899512478003089,    -0.16221167441072886772346350880980,     0.19134171618254486313404072461708,    -0.19134171618254480762288949335925,     0.16221167441072875670116104629415,    -0.10838637566236943021724670188632,     0.03806023374435666545290146700609,
            -0.19134171618254494640076757150382,     0.54489510677581853848039372678613,    -0.81549315684891732214367721098824,     0.96193976625564359128617297756136,    -0.96193976625564336924156805253006,     0.81549315684891687805446736092563,    -0.54489510677581798336888141420786,     0.19134171618254519620094811216404,
            -0.10838637566236963838406381910318,     0.30865828381745508135480804412509,    -0.46193976625564348026387051504571,     0.54489510677581876052499865181744,    -0.54489510677581853848039372678613,     0.46193976625564320270811435875657,    -0.30865828381745469277674942532030,     0.10838637566236977716194189724774,
             0.10838637566236958287291258784535,    -0.30865828381745485931020311909379,     0.46193976625564320270811435875657,    -0.54489510677581842745809126427048,     0.54489510677581831643578880175482,    -0.46193976625564292515235820246744,     0.30865828381745452624329573154682,    -0.10838637566236972165079066598992,
             0.19134171618254494640076757150382,    -0.54489510677581853848039372678613,     0.81549315684891732214367721098824,    -0.96193976625564359128617297756136,     0.96193976625564336924156805253006,    -0.81549315684891687805446736092563,     0.54489510677581798336888141420786,    -0.19134171618254519620094811216404,
             0.03806023374435673484184050607837,    -0.10838637566236988818424435976340,     0.16221167441072933956824897450133,    -0.19134171618254541824555303719535,     0.19134171618254539048997742156644,    -0.16221167441072925630152212761459,     0.10838637566236976328415408943329,    -0.03806023374435678341409783342897,
            -0.16221167441072889547903912443871,     0.46193976625564325821926559001440,    -0.69134171618254502966749441839056,     0.81549315684891721112137474847259,    -0.81549315684891698907676982344128,     0.69134171618254458557828456832794,    -0.46193976625564270310775327743613,     0.16221167441072911752364404947002,
    },
    },
    {
        // (v, u)=(4,0)
        {
             0.70710678118654757273731092936941,     0.70710678118654757273731092936941,     0.70710678118654757273731092936941,     0.70710678118654757273731092936941,     0.70710678118654757273731092936941,     0.70710678118654757273731092936941,     0.70710678118654757273731092936941,     0.70710678118654757273731092936941,
            -0.70710678118654746171500846685376,    -0.70710678118654746171500846685376,    -0.70710678118654746171500846685376,    -0.70710678118654746171500846685376,    -0.70710678118654746171500846685376,    -0.70710678118654746171500846685376,    -0.70710678118654746171500846685376,    -0.70710678118654746171500846685376,
            -0.70710678118654768375961339188507,    -0.70710678118654768375961339188507,    -0.70710678118654768375961339188507,    -0.70710678118654768375961339188507,    -0.70710678118654768375961339188507,    -0.70710678118654768375961339188507,    -0.70710678118654768375961339188507,    -0.70710678118654768375961339188507,
             0.70710678118654735069270600433811,     0.70710678118654735069270600433811,     0.70710678118654735069270600433811,     0.70710678118654735069270600433811,     0.70710678118654735069270600433811,     0.70710678118654735069270600433811,     0.70710678118654735069270600433811,     0.70710678118654735069270600433811,
             0.70710678118654768375961339188507,     0.70710678118654768375961339188507,     0.70710678118654768375961339188507,     0.70710678118654768375961339188507,     0.70710678118654768375961339188507,     0.70710678118654768375961339188507,     0.70710678118654768375961339188507,     0.70710678118654768375961339188507,
            -0.70710678118654668455889122924418,    -0.70710678118654668455889122924418,    -0.70710678118654668455889122924418,    -0.70710678118654668455889122924418,    -0.70710678118654668455889122924418,    -0.70710678118654668455889122924418,    -0.70710678118654668455889122924418,    -0.70710678118654668455889122924418,
            -0.70710678118654712864810107930680,    -0.70710678118654712864810107930680,    -0.70710678118654712864810107930680,    -0.70710678118654712864810107930680,    -0.70710678118654712864810107930680,    -0.70710678118654712864810107930680,    -0.70710678118654712864810107930680,    -0.70710678118654712864810107930680,
             0.70710678118654657353658876672853,     0.70710678118654657353658876672853,     0.70710678118654657353658876672853,     0.70710678118654657353658876672853,     0.70710678118654657353658876672853,     0.70710678118654657353658876672853,     0.70710678118654657353658876672853,     0.70710678118654657353658876672853,
    },
        // (v, u)=(4,1)
        {
             0.69351992266107376217121327499626,     0.58793780120967942259824212669628,     0.39284747919355117451445380538644,     0.13794968964147155676691625103558,    -0.13794968964147147350018940414884,    -0.39284747919355095246984888035513,    -0.58793780120967942259824212669628,    -0.69351992266107376217121327499626,
            -0.69351992266107365114891081248061,    -0.58793780120967931157593966418062,    -0.39284747919355111900330257412861,    -0.13794968964147152901134063540667,     0.13794968964147144574461378851993,     0.39284747919355084144754641783948,     0.58793780120967942259824212669628,     0.69351992266107365114891081248061,
            -0.69351992266107387319351573751192,    -0.58793780120967953362054458921193,    -0.39284747919355123002560503664427,    -0.13794968964147158452249186666450,     0.13794968964147147350018940414884,     0.39284747919355100798100011161296,     0.58793780120967953362054458921193,     0.69351992266107387319351573751192,
             0.69351992266107354012660834996495,     0.58793780120967920055363720166497,     0.39284747919355106349215134287078,     0.13794968964147152901134063540667,    -0.13794968964147141798903817289101,    -0.39284747919355078593639518658165,    -0.58793780120967931157593966418062,    -0.69351992266107354012660834996495,
             0.69351992266107387319351573751192,     0.58793780120967953362054458921193,     0.39284747919355123002560503664427,     0.13794968964147158452249186666450,    -0.13794968964147147350018940414884,    -0.39284747919355100798100011161296,    -0.58793780120967953362054458921193,    -0.69351992266107387319351573751192,
            -0.69351992266107287399279357487103,    -0.58793780120967864544212488908670,    -0.39284747919355067491409272406599,    -0.13794968964147139023346255726210,     0.13794968964147127921116009474645,     0.39284747919355045286948779903469,     0.58793780120967875646442735160235,     0.69351992266107287399279357487103,
            -0.69351992266107331808200342493365,    -0.58793780120967897850903227663366,    -0.39284747919355089695869764909730,    -0.13794968964147147350018940414884,     0.13794968964147136247788694163319,     0.39284747919355067491409272406599,     0.58793780120967908953133473914932,     0.69351992266107331808200342493365,
             0.69351992266107276297049111235538,     0.58793780120967853441982242657105,     0.39284747919355061940294149280817,     0.13794968964147136247788694163319,    -0.13794968964147127921116009474645,    -0.39284747919355039735833656777686,    -0.58793780120967864544212488908670,    -0.69351992266107276297049111235538,
    },
        // (v, u)=(4,2)
        {
             0.65328148243818828788676000840496,     0.27059805007309856161867855917080,    -0.27059805007309850610752732791298,    -0.65328148243818828788676000840496,    -0.65328148243818839890906247092062,    -0.27059805007309889468558594671777,     0.27059805007309867264098102168646,     0.65328148243818817686445754588931,
            -0.65328148243818817686445754588931,    -0.27059805007309850610752732791298,     0.27059805007309845059637609665515,     0.65328148243818817686445754588931,     0.65328148243818828788676000840496,     0.27059805007309889468558594671777,    -0.27059805007309861712982979042863,    -0.65328148243818806584215508337365,
            -0.65328148243818839890906247092062,    -0.27059805007309861712982979042863,     0.27059805007309850610752732791298,     0.65328148243818839890906247092062,     0.65328148243818850993136493343627,     0.27059805007309895019673717797559,    -0.27059805007309872815213225294428,    -0.65328148243818828788676000840496,
             0.65328148243818806584215508337365,     0.27059805007309845059637609665515,    -0.27059805007309839508522486539732,    -0.65328148243818806584215508337365,    -0.65328148243818817686445754588931,    -0.27059805007309883917443471545994,     0.27059805007309861712982979042863,     0.65328148243818795481985262085800,
             0.65328148243818839890906247092062,     0.27059805007309861712982979042863,    -0.27059805007309850610752732791298,    -0.65328148243818839890906247092062,    -0.65328148243818850993136493343627,    -0.27059805007309895019673717797559,     0.27059805007309872815213225294428,     0.65328148243818828788676000840496,
            -0.65328148243818751073064277079538,    -0.27059805007309822855177117162384,     0.27059805007309811752946870910819,     0.65328148243818751073064277079538,     0.65328148243818751073064277079538,     0.27059805007309856161867855917080,    -0.27059805007309833957407363413949,    -0.65328148243818728868603784576408,
            -0.65328148243818784379755015834235,    -0.27059805007309839508522486539732,     0.27059805007309828406292240288167,     0.65328148243818784379755015834235,     0.65328148243818795481985262085800,     0.27059805007309872815213225294428,    -0.27059805007309850610752732791298,    -0.65328148243818773277524769582669,
             0.65328148243818739970834030827973,     0.27059805007309817304061994036601,    -0.27059805007309811752946870910819,    -0.65328148243818739970834030827973,    -0.65328148243818739970834030827973,    -0.27059805007309850610752732791298,     0.27059805007309828406292240288167,     0.65328148243818717766373538324842,
    },
        // (v, u)=(4,3)
        {
             0.58793780120967942259824212669628,    -0.13794968964147147350018940414884,    -0.69351992266107376217121327499626,    -0.39284747919355106349215134287078,     0.39284747919355084144754641783948,     0.69351992266107376217121327499626,     0.13794968964147186207824802295363,    -0.58793780120967931157593966418062,
            -0.58793780120967931157593966418062,     0.13794968964147144574461378851993,     0.69351992266107365114891081248061,     0.39284747919355100798100011161296,    -0.39284747919355078593639518658165,    -0.69351992266107365114891081248061,    -0.13794968964147186207824802295363,     0.58793780120967920055363720166497,
            -0.58793780120967953362054458921193,     0.13794968964147147350018940414884,     0.69351992266107387319351573751192,     0.39284747919355111900330257412861,    -0.39284747919355089695869764909730,    -0.69351992266107387319351573751192,    -0.13794968964147188983382363858254,     0.58793780120967942259824212669628,
             0.58793780120967920055363720166497,    -0.13794968964147141798903817289101,    -0.69351992266107354012660834996495,    -0.39284747919355095246984888035513,     0.39284747919355073042524395532382,     0.69351992266107354012660834996495,     0.13794968964147183432267240732472,    -0.58793780120967908953133473914932,
             0.58793780120967953362054458921193,    -0.13794968964147147350018940414884,    -0.69351992266107387319351573751192,    -0.39284747919355111900330257412861,     0.39284747919355089695869764909730,     0.69351992266107387319351573751192,     0.13794968964147188983382363858254,    -0.58793780120967942259824212669628,
            -0.58793780120967864544212488908670,     0.13794968964147127921116009474645,     0.69351992266107287399279357487103,     0.39284747919355056389179026155034,    -0.39284747919355034184718533651903,    -0.69351992266107287399279357487103,    -0.13794968964147169554479432918015,     0.58793780120967853441982242657105,
            -0.58793780120967897850903227663366,     0.13794968964147136247788694163319,     0.69351992266107331808200342493365,     0.39284747919355084144754641783948,    -0.39284747919355061940294149280817,    -0.69351992266107331808200342493365,    -0.13794968964147177881152117606689,     0.58793780120967897850903227663366,
             0.58793780120967853441982242657105,    -0.13794968964147127921116009474645,    -0.69351992266107276297049111235538,    -0.39284747919355050838063903029251,     0.39284747919355028633603410526121,     0.69351992266107276297049111235538,     0.13794968964147166778921871355124,    -0.58793780120967853441982242657105,
    },
        // (v, u)=(4,4)
        {
             0.50000000000000011102230246251565,    -0.50000000000000000000000000000000,    -0.50000000000000011102230246251565,     0.49999999999999988897769753748435,     0.50000000000000011102230246251565,    -0.49999999999999944488848768742173,    -0.49999999999999977795539507496869,     0.49999999999999938937733645616390,
            -0.50000000000000000000000000000000,     0.49999999999999988897769753748435,     0.50000000000000011102230246251565,    -0.49999999999999983346654630622652,    -0.50000000000000011102230246251565,     0.49999999999999938937733645616390,     0.49999999999999966693309261245304,    -0.49999999999999927835503399364825,
            -0.50000000000000011102230246251565,     0.50000000000000011102230246251565,     0.50000000000000022204460492503131,    -0.50000000000000000000000000000000,    -0.50000000000000022204460492503131,     0.49999999999999950039963891867956,     0.49999999999999983346654630622652,    -0.49999999999999944488848768742173,
             0.49999999999999988897769753748435,    -0.49999999999999983346654630622652,    -0.50000000000000000000000000000000,     0.49999999999999977795539507496869,     0.50000000000000000000000000000000,    -0.49999999999999927835503399364825,    -0.49999999999999961142194138119521,     0.49999999999999922284388276239042,
             0.50000000000000011102230246251565,    -0.50000000000000011102230246251565,    -0.50000000000000022204460492503131,     0.50000000000000000000000000000000,     0.50000000000000022204460492503131,    -0.49999999999999950039963891867956,    -0.49999999999999983346654630622652,     0.49999999999999944488848768742173,
            -0.49999999999999944488848768742173,     0.49999999999999938937733645616390,     0.49999999999999950039963891867956,    -0.49999999999999927835503399364825,    -0.49999999999999950039963891867956,     0.49999999999999883426582414358563,     0.49999999999999911182158029987477,    -0.49999999999999872324352168106998,
            -0.49999999999999977795539507496869,     0.49999999999999966693309261245304,     0.49999999999999983346654630622652,    -0.49999999999999961142194138119521,    -0.49999999999999983346654630622652,     0.49999999999999911182158029987477,     0.49999999999999944488848768742173,    -0.49999999999999905631042906861694,
             0.49999999999999938937733645616390,    -0.49999999999999927835503399364825,    -0.49999999999999944488848768742173,     0.49999999999999922284388276239042,     0.49999999999999944488848768742173,    -0.49999999999999872324352168106998,    -0.49999999999999905631042906861694,     0.49999999999999866773237044981215,
    },
        // (v, u)=(4,5)
        {
             0.39284747919355117451445380538644,    -0.69351992266107376217121327499626,     0.13794968964147152901134063540667,     0.58793780120967953362054458921193,    -0.58793780120967931157593966418062,    -0.13794968964147133472231132600427,     0.69351992266107387319351573751192,    -0.39284747919355061940294149280817,
            -0.39284747919355111900330257412861,     0.69351992266107365114891081248061,    -0.13794968964147152901134063540667,    -0.58793780120967942259824212669628,     0.58793780120967920055363720166497,     0.13794968964147133472231132600427,    -0.69351992266107376217121327499626,     0.39284747919355056389179026155034,
